tree
version=v3
num_class=1
num_tree_per_iteration=1
label_index=0
max_feature_idx=5
objective=binary sigmoid:1
feature_names=Column_0 Column_1 Column_2 Column_3 Column_4 Column_5
feature_infos=[1:10] [0:99] [0:34] [0:12] [1:7] [1:67]
tree_sizes=536 540 540 641 638 539 639 640 641 640 1256 1151 641 946 642 643 640 543 642 640 840 846 641 845 1152 951 644 1466 948 948 950 948 1154 641 946 644 642 739 742 738 1158 844 743 1154 745 742 644 741 1157 741 1257 744 947 846 1150 947 943 641 837 846 948 843 943 841 846 949 945 1047 945 747 947 1053 746 845 743 945 1261 948 1259 940 949 1357 1364 1263 1263 1157 928 926 1161 925 745 1255 1263 846 852 1158 852 849 1160 747 952 1161 1267 1161 1156 1050 1361 1266 1265 1049 1049 948 1042 1268 1163 1161 1048 953 1163 1164 1049 939 945 1162 1030 831 1465 1160 931 830 831 1270 1266 830 1268 1053 928 1471 1372 1049 1050 953 1053 1271 1053 1467 1054 1051 948 1370

Tree=0
num_leaves=4
num_cat=0
split_feature=5 3 5
split_gain=4452.08 2029.34 6.36905
threshold=20.500000000000004 1.0000000180025095e-35 25.500000000000004
decision_type=2 2 2
left_child=-1 -2 -3
right_child=1 2 -4
leaf_value=-0.054216782696847224 -0.054171286890543513 0.0469448881275807 0.065278617552057813
leaf_weight=662.99415135383606 152.49865472316742 19.499827980995178 810.74284797906876
leaf_count=2652 610 78 3243
internal_value=0 1.34768 1.9636
internal_weight=0 982.741 830.243
internal_count=6583 3931 3321
shrinkage=1


Tree=1
num_leaves=4
num_cat=0
split_feature=5 3 5
split_gain=4192.56 1911.39 6.00186
threshold=20.500000000000004 1.0000000180025095e-35 25.500000000000004
decision_type=2 2 2
left_child=-1 -2 -3
right_child=1 2 -4
leaf_value=-0.058403458646265248 -0.058360109118502972 0.039794370111174204 0.057611825580414125
leaf_weight=662.51302117109299 152.3881784081459 19.48926043510437 809.88692504167557
leaf_count=2652 610 78 3243
internal_value=0 1.30857 1.90672
internal_weight=0 981.764 829.376
internal_count=6583 3931 3321
shrinkage=0.03


Tree=2
num_leaves=4
num_cat=0
split_feature=5 3 5
split_gain=3955.03 1803.36 5.69516
threshold=20.500000000000004 1.0000000180025095e-35 25.500000000000004
decision_type=2 2 2
left_child=-1 -2 -3
right_child=1 2 -4
leaf_value=-0.05679156267895475 -0.056750013112606502 0.038658440887283811 0.056037312416494379
leaf_weight=660.90219336748123 152.01822727918625 19.463368088006973 807.69666695594788
leaf_count=2652 610 78 3243
internal_value=0 1.27272 1.85456
internal_weight=0 979.178 827.16
internal_count=6583 3931 3321
shrinkage=0.03


Tree=3
num_leaves=5
num_cat=0
split_feature=5 3 5 2
split_gain=3736.88 1704.08 5.43838 39.6096
threshold=20.500000000000004 1.0000000180025095e-35 25.500000000000004 3.5000000000000004
decision_type=2 2 2 2
left_child=-1 -2 3 -3
right_child=1 2 -4 -5
leaf_value=-0.055311877594956288 -0.055271820815747157 0.055941471385063453 0.054589576068238901 -0.060963909718984043
leaf_weight=658.26556044816971 151.41268000006676 16.435305923223499 804.29539775848389 2.9882374405860892
leaf_count=2652 610 66 3243 12
internal_value=0 1.23974 1.80656 1.25274
internal_weight=0 975.132 823.719 19.4235
internal_count=6583 3931 3321 78
shrinkage=0.03


Tree=4
num_leaves=5
num_cat=0
split_feature=5 3 5 2
split_gain=3535.9 1612.56 5.21502 37.4278
threshold=20.500000000000004 1.0000000180025095e-35 25.500000000000004 3.5000000000000004
decision_type=2 2 2 2
left_child=-1 -2 3 -3
right_child=1 2 -4 -5
leaf_value=-0.053949284782670227 -0.053910471930789287 0.054508181255015803 0.05325428296464195 -0.059026031821336755
leaf_weight=654.69946700334549 150.59362456202507 16.365093559026722 799.79706653952599 2.9968882799148551
leaf_count=2652 610 66 3243 12
internal_value=0 1.20931 1.76227 1.21893
internal_weight=0 969.753 819.159 19.362
internal_count=6583 3931 3321 78
shrinkage=0.03


Tree=5
num_leaves=4
num_cat=0
split_feature=5 3 5
split_gain=3350.25 1527.99 5.00154
threshold=20.500000000000004 1.0000000180025095e-35 25.500000000000004
decision_type=2 2 2
left_child=-1 -2 -3
right_child=1 2 -4
leaf_value=-0.05269090667079801 -0.052653113567301589 0.035633090412692893 0.052019175786323202
leaf_weight=650.29286777973175 149.58150371909142 19.272639513015747 794.30721393227577
leaf_count=2652 610 78 3243
internal_value=0 1.18118 1.7213
internal_weight=0 963.161 813.58
internal_count=6583 3931 3321
shrinkage=0.03


Tree=6
num_leaves=5
num_cat=0
split_feature=5 3 5 2
split_gain=3178.27 1449.58 4.8521 35.5317
threshold=20.500000000000004 1.0000000180025095e-35 25.500000000000004 3.5000000000000004
decision_type=2 2 2 2
left_child=-1 -2 3 -3
right_child=1 2 -4 -5
leaf_value=-0.05152567975339177 -0.051488722927105691 0.052359106906674849 0.050873710603555521 -0.058311874680222989
leaf_weight=645.12827610969543 148.39525133371353 16.199676722288135 787.92360033094883 2.9987370371818534
leaf_count=2652 610 66 3243 12
internal_value=0 1.15505 1.68324 1.15682
internal_weight=0 955.517 807.122 19.1984
internal_count=6583 3931 3321 78
shrinkage=0.03


Tree=7
num_leaves=5
num_cat=0
split_feature=5 3 5 2
split_gain=3018.61 1376.79 4.67492 33.6831
threshold=20.500000000000004 1.0000000180025095e-35 25.500000000000004 3.5000000000000004
decision_type=2 2 2 2
left_child=-1 -2 3 -3
right_child=1 2 -4 -5
leaf_value=-0.050444063331868835 -0.050407775893252446 0.051195880300559264 0.049808772449172888 -0.056599454913491019
leaf_weight=639.28196150064468 147.05239236354828 16.074852883815769 780.73664081096649 2.9997763037681571
leaf_count=2652 610 66 3243 12
internal_value=0 1.13079 1.6479 1.12934
internal_weight=0 946.864 799.811 19.0746
internal_count=6583 3931 3321 78
shrinkage=0.03


Tree=8
num_leaves=5
num_cat=0
split_feature=5 3 5 2
split_gain=2870.04 1309.04 4.50358 31.9713
threshold=20.500000000000004 1.0000000180025095e-35 25.500000000000004 3.5000000000000004
decision_type=2 2 2 2
left_child=-1 -2 3 -3
right_child=1 2 -4 -5
leaf_value=-0.049437770887806175 -0.049402009720484225 0.050115128357234848 0.048816432808794781 -0.055025701179169696
leaf_weight=632.82458192110062 145.56914284825325 15.933146685361864 772.83008167147636 2.9959110617637625
leaf_count=2652 610 66 3243 12
internal_value=0 1.10819 1.61497 1.10384
internal_weight=0 937.328 791.759 18.9291
internal_count=6583 3931 3321 78
shrinkage=0.03


Tree=9
num_leaves=5
num_cat=0
split_feature=5 3 5 2
split_gain=2731.51 1245.84 4.33811 30.3822
threshold=20.500000000000004 1.0000000180025095e-35 25.500000000000004 3.5000000000000004
decision_type=2 2 2 2
left_child=-1 -2 3 -3
right_child=1 2 -4 -5
leaf_value=-0.048499582373544035 -0.04846421597355767 0.049108699124027773 0.047889777361550895 -0.053574552480763718
leaf_weight=625.82146042585373 143.96050989627838 15.776293963193895 764.28133870661259 2.9875736832618704
leaf_count=2652 610 66 3243 12
internal_value=0 1.08709 1.58422 1.08011
internal_weight=0 927.006 783.045 18.7639
internal_count=6583 3931 3321 78
shrinkage=0.03


Tree=10
num_leaves=11
num_cat=0
split_feature=3 1 2 3 0 1 1 1 3 4
split_gain=2389.33 80.183 44.2729 76.1301 71.2333 77.9982 25.6899 21.8016 4.05353 3.15346
threshold=1.0000000180025095e-35 5.5000000000000009 3.5000000000000004 1.5000000000000002 3.5000000000000004 69.500000000000014 94.500000000000014 18.500000000000004 8.5000000000000018 5.5000000000000009
decision_type=2 2 2 2 2 2 2 2 2 2
left_child=-1 -2 7 -4 5 -5 -6 -3 -9 -10
right_child=1 2 3 4 6 -7 -8 8 9 -11
leaf_value=-0.047624172794066645 -0.047641703212504258 -0.044722267117255722 0.046486662365050571 -0.047913827441349942 0.025909668009215934 0.018218621400584847 -0.047652413312594143 0.047682381115749135 0.040785879774678603 0.030225683188764941
leaf_weight=587.10447639226913 11.890722960233687 2.5647300481796256 132.49861970543861 26.405567139387131 455.9519664645195 40.532989203929901 4.1965328156948081 73.122100621461868 165.11201396584511 34.936916381120682
leaf_count=2518 51 11 569 113 1957 174 18 313 709 150
internal_value=0 0.979863 1.01278 0.871414 0.700492 -0.261892 0.840735 1.35015 1.37772 1.29909
internal_weight=0 947.212 935.321 659.586 527.087 66.9386 460.148 275.736 273.171 200.049
internal_count=6583 4065 4014 2831 2262 287 1975 1183 1172 859
shrinkage=0.03


Tree=11
num_leaves=10
num_cat=0
split_feature=3 1 3 2 0 1 1 1 3
split_gain=2273.09 76.1277 42.9926 73.4281 67.2605 74.2224 24.3553 20.7568 4.01452
threshold=1.0000000180025095e-35 5.5000000000000009 1.5000000000000002 3.5000000000000004 3.5000000000000004 69.500000000000014 94.500000000000014 18.500000000000004 8.5000000000000018
decision_type=2 2 2 2 2 2 2 2 2
left_child=-1 -2 -3 7 5 -5 -6 -4 -9
right_child=1 2 3 4 6 -7 -8 8 -10
leaf_value=-0.046803861443982138 -0.046805010440908963 0.045664588272354346 -0.043946170750397327 -0.047070468731654214 0.025233849318898417 0.0177091858259 -0.046786552258307842 0.046854116303136101 0.038144173306261894
leaf_weight=579.58772453665733 11.744182989001272 130.86387756466866 2.5339534580707541 26.079030185937881 454.1485950499773 40.452131867408752 4.1485448479652396 72.197985678911209 198.29612262547016
leaf_count=2518 51 569 11 113 1957 174 18 313 859
internal_value=0 0.957402 0.989511 0.901842 0.682414 -0.255693 0.818844 1.32287 1.34988
internal_weight=0 940.464 928.72 797.856 524.828 66.5312 458.297 273.028 270.494
internal_count=6583 4065 4014 3445 2262 287 1975 1183 1172
shrinkage=0.03


Tree=12
num_leaves=5
num_cat=0
split_feature=5 3 5 2
split_gain=2447.46 1090.6 4.4801 27.8841
threshold=20.500000000000004 1.0000000180025095e-35 25.500000000000004 3.5000000000000004
decision_type=2 2 2 2
left_child=-1 -2 3 -3
right_child=1 2 -4 -5
leaf_value=-0.046589714405911455 -0.045998038457796472 0.046484152709020919 0.045877912250209041 -0.052356788144572709
leaf_weight=607.25852453708649 138.51303860545158 15.234240978956224 741.17212989926338 2.9724002480506888
leaf_count=2652 610 66 3243 12
internal_value=0 1.04608 1.51683 0.999525
internal_weight=0 897.892 759.379 18.2066
internal_count=6583 3931 3321 78
shrinkage=0.03


Tree=13
num_leaves=8
num_cat=0
split_feature=5 1 2 2 5 1 2
split_gain=2336.1 72.5581 60.8014 91.0926 69.12 58.2005 25.8335
threshold=20.500000000000004 5.5000000000000009 1.5000000000000002 3.5000000000000004 25.500000000000004 93.500000000000014 1.0000000180025095e-35
decision_type=2 2 2 2 2 2 2
left_child=-1 -2 6 -4 -5 -6 -3
right_child=1 2 3 4 5 -7 -8
leaf_value=-0.045835237336109086 -0.045364460450085756 -0.042828271124569238 -0.044846587814038649 -0.046985813436065477 0.031159454767528433 -0.045371853474263354 0.045468532131294655
leaf_weight=598.86516386270523 10.979176700115202 2.9096890687942496 15.443734288215635 10.566472113132475 590.66595694422722 8.9647761434316617 245.92378525435925
leaf_count=2652 49 13 69 46 2619 40 1095
internal_value=0 1.02916 1.06135 0.894375 0.955244 1.0001 1.48024
internal_weight=0 885.454 874.474 625.641 610.197 599.631 248.833
internal_count=6583 3931 3882 2774 2705 2659 1108
shrinkage=0.03


Tree=14
num_leaves=5
num_cat=0
split_feature=5 3 5 2
split_gain=2226.68 1030.28 4.2479 25.4292
threshold=20.500000000000004 1.0000000180025095e-35 25.500000000000004 3.5000000000000004
decision_type=2 2 2 2
left_child=-1 -2 3 -3
right_child=1 2 -4 -5
leaf_value=-0.045126407451034127 -0.045380334399668924 0.044988029700367839 0.044581767244040046 -0.050033184720741981
leaf_weight=590.15690261125565 136.75303480029106 14.822448492050173 722.57698771357536 2.9389590024948111
leaf_count=2652 610 66 3243 12
internal_value=0 1.00792 1.47379 0.963498
internal_weight=0 877.091 740.338 17.7614
internal_count=6583 3931 3321 78
shrinkage=0.03


Tree=15
num_leaves=5
num_cat=0
split_feature=5 3 5 2
split_gain=2128.23 984.604 4.08536 24.2838
threshold=20.500000000000004 1.0000000180025095e-35 25.500000000000004 3.5000000000000004
decision_type=2 2 2 2
left_child=-1 -2 3 -3
right_child=1 2 -4 -5
leaf_value=-0.044459484910225298 -0.044695574732937712 0.044303581136570694 0.043913852751315985 -0.048941874114682538
leaf_weight=581.17659269273281 134.71505203843117 14.604734301567079 711.72570957243443 2.9169164896011344
leaf_count=2652 610 66 3243 12
internal_value=0 0.99276 1.45166 0.947355
internal_weight=0 863.962 729.247 17.5217
internal_count=6583 3931 3321 78
shrinkage=0.03


Tree=16
num_leaves=5
num_cat=0
split_feature=5 3 5 2
split_gain=2035.48 941.564 3.92974 23.2079
threshold=20.500000000000004 1.0000000180025095e-35 25.500000000000004 3.5000000000000004
decision_type=2 2 2 2
left_child=-1 -2 3 -3
right_child=1 2 -4 -5
leaf_value=-0.043831119329812394 -0.0440507442024764 0.043658232964754191 0.043283448378153684 -0.047922155239777622
leaf_weight=571.96386358141899 132.61958339810371 14.380863547325136 700.59863464534283 2.8921147584915152
leaf_count=2652 610 66 3243 12
internal_value=0 0.97846 1.43077 0.932138
internal_weight=0 850.491 717.872 17.273
internal_count=6583 3931 3321 78
shrinkage=0.03


Tree=17
num_leaves=4
num_cat=0
split_feature=5 3 5
split_gain=1947.98 900.96 3.78072
threshold=20.500000000000004 1.0000000180025095e-35 25.500000000000004
decision_type=2 2 2
left_child=-1 -2 -3
right_child=1 2 -4
leaf_value=-0.043238308451662363 -0.043442699635215042 0.027533089788747078 0.042687619325025551
leaf_weight=562.55514231324196 130.47534357011318 17.016597598791122 689.23942330479622
leaf_count=2652 610 78 3243
internal_value=0 0.964949 1.41102
internal_weight=0 836.731 706.256
internal_count=6583 3931 3321
shrinkage=0.03


Tree=18
num_leaves=5
num_cat=0
split_feature=5 3 5 2
split_gain=1865.22 862.476 3.78145 22.3386
threshold=20.500000000000004 1.0000000180025095e-35 25.500000000000004 3.5000000000000004
decision_type=2 2 2 2
left_child=-1 -2 3 -3
right_child=1 2 -4 -5
leaf_value=-0.04267835713496608 -0.042868613051561991 0.042677682376834246 0.042123715337409537 -0.047510722649028718
leaf_weight=552.98401100933552 128.29034428298473 14.003263592720034 677.68825325369835 2.8808634281158438
leaf_count=2652 610 66 3243 12
internal_value=0 0.95202 1.39208 0.897449
internal_weight=0 822.863 694.572 16.8841
internal_count=6583 3931 3321 78
shrinkage=0.03


Tree=19
num_leaves=5
num_cat=0
split_feature=5 3 5 1
split_gain=1787.07 826.206 3.6464 16.9922
threshold=20.500000000000004 1.0000000180025095e-35 25.500000000000004 66.500000000000014
decision_type=2 2 2 2
left_child=-1 -2 3 -3
right_child=1 2 -4 -5
leaf_value=-0.04214882677450224 -0.042325935405867481 -0.045885481945584554 0.041589349856193912 0.039029500367548105
leaf_weight=543.28142395615578 126.07198119163513 2.3718597292900094 665.98215344548225 14.248170763254166
leaf_count=2652 610 10 3243 68
internal_value=0 0.939906 1.37437 0.884327
internal_weight=0 808.674 682.602 16.62
internal_count=6583 3931 3321 78
shrinkage=0.03


Tree=20
num_leaves=7
num_cat=0
split_feature=5 3 5 2 2 2
split_gain=1713.07 791.844 3.5457 20.6907 0.0293282 1.03914
threshold=20.500000000000004 1.0000000180025095e-35 25.500000000000004 3.5000000000000004 23.500000000000004 24.500000000000004
decision_type=2 2 2 2 2 2
left_child=-1 -2 3 -3 -4 -6
right_child=1 2 4 -5 5 -7
leaf_value=-0.041647511647692446 -0.041812371398480645 0.041632497331354851 0.041598181912293045 -0.04601281707321634 0.036289502668177848 0.041769779197298386
leaf_weight=533.47583831846714 123.82704256474972 13.546191841363909 463.63439126312733 2.8307878673076621 70.06564886868 120.45505681633949
leaf_count=2652 610 66 2305 12 344 594
internal_value=0 0.928386 1.35751 0.870449 1.36941 1.32634
internal_weight=0 794.359 670.532 16.377 654.155 190.521
internal_count=6583 3931 3321 78 3243 938
shrinkage=0.03


Tree=21
num_leaves=7
num_cat=0
split_feature=5 3 5 2 2 2
split_gain=1642.98 759.315 3.42091 19.8255 0.0420167 1.03874
threshold=20.500000000000004 1.0000000180025095e-35 25.500000000000004 3.5000000000000004 23.500000000000004 24.500000000000004
decision_type=2 2 2 2 2 2
left_child=-1 -2 3 -3 -4 -6
right_child=1 2 4 -5 5 -7
leaf_value=-0.041172424142430442 -0.041325839776547552 0.041130774410634501 0.041124893184926029 -0.045174268906817402 0.035773800958982728 0.041285213582642019
leaf_weight=523.59329549968243 121.56176906824112 13.304958790540697 455.03234229981899 2.7991674840450278 68.961607500910759 118.24734777212143
leaf_count=2652 610 66 2305 12 344 594
internal_value=0 0.91749 1.34156 0.858606 1.35338 1.30971
internal_weight=0 779.907 658.345 16.1041 642.241 187.209
internal_count=6583 3931 3321 78 3243 938
shrinkage=0.03


Tree=22
num_leaves=5
num_cat=0
split_feature=5 3 5 1
split_gain=1576.5 728.459 3.30064 14.9103
threshold=20.500000000000004 1.0000000180025095e-35 25.500000000000004 66.500000000000014
decision_type=2 2 2 2
left_child=-1 -2 3 -3
right_child=1 2 -4 -5
leaf_value=-0.040721745197665138 -0.040864441235076911 -0.04343897909898093 0.04014378389627124 0.037523380323613048
leaf_weight=513.65782414376736 119.28190122544765 2.2902661263942692 630.26618985831738 13.537434905767441
leaf_count=2652 610 10 3243 68
internal_value=0 0.907135 1.32639 0.847354
internal_weight=0 765.376 646.094 15.8277
internal_count=6583 3931 3321 78
shrinkage=0.03


Tree=23
num_leaves=7
num_cat=0
split_feature=5 3 5 2 2 2
split_gain=1513.34 699.127 3.21421 18.4277 0.080251 1.08297
threshold=20.500000000000004 1.0000000180025095e-35 25.500000000000004 3.5000000000000004 23.500000000000004 24.500000000000004
decision_type=2 2 2 2 2 2
left_child=-1 -2 3 -3 -4 -6
right_child=1 2 4 -5 5 -7
leaf_value=-0.040293823856476375 -0.040426464435323162 0.040235857442886117 0.040255076237081397 -0.043928545416127625 0.034728600960980731 0.040396537013110072
leaf_weight=503.6913281083107 116.99268066883087 12.836503297090529 437.82612712681293 2.7402593195438376 66.594772771000862 113.83297038078308
leaf_count=2652 610 66 2305 12 344 594
internal_value=0 0.897232 1.31188 0.835085 1.32359 1.27805
internal_weight=0 750.823 633.831 15.5768 618.254 180.428
internal_count=6583 3931 3321 78 3243 938
shrinkage=0.03


Tree=24
num_leaves=10
num_cat=0
split_feature=3 1 3 2 0 1 1 1 3
split_gain=1300.56 43.9225 26.3315 43.1308 37.9234 42.6687 14.6518 11.6504 2.44139
threshold=1.0000000180025095e-35 5.5000000000000009 1.5000000000000002 3.5000000000000004 3.5000000000000004 69.500000000000014 94.500000000000014 18.500000000000004 8.5000000000000018
decision_type=2 2 2 2 2 2 2 2 2
left_child=-1 -2 -3 7 5 -5 -6 -4 -9
right_child=1 2 3 4 6 -7 -8 8 -10
leaf_value=-0.039672506427950081 -0.04016695326600684 0.038728440479517311 -0.036336151596093144 -0.040045057797215844 0.020899959517052705 0.014521415410956588 -0.041236083340798355 0.039615128932025269 0.031924530498871791
leaf_weight=464.3884219378233 9.3736768066883069 105.27309460937977 2.0220250189304343 20.857398554682732 373.55808521807194 33.356437817215919 3.3256589621305457 57.862331911921501 159.92482940852642
leaf_count=2518 51 569 11 113 1957 174 18 313 859
internal_value=0 0.798576 0.825378 0.74974 0.56523 -0.21505 0.677764 1.11073 1.13329
internal_weight=0 765.554 756.18 650.907 431.098 54.2138 376.884 219.809 217.787
internal_count=6583 4065 4014 3445 2262 287 1975 1183 1172
shrinkage=0.03


Tree=25
num_leaves=8
num_cat=0
split_feature=5 2 2 5 1 1 2
split_gain=1438.69 40.1351 57.9269 39.3024 38.4913 31.2766 22.6187
threshold=20.500000000000004 1.5000000000000002 3.5000000000000004 25.500000000000004 93.500000000000014 5.5000000000000009 1.0000000180025095e-35
decision_type=2 2 2 2 2 2 2
left_child=-1 6 -3 -4 5 -5 -2
right_child=1 2 3 4 -6 -7 -8
leaf_value=-0.039649907615394712 -0.03723589386656756 -0.038680272557034094 -0.040449292555358618 -0.042206424441336446 -0.039865334128203339 0.027119336620506355 0.039369641385714922
leaf_weight=488.96795177459717 3.4137161374092093 13.463482797145842 8.2273231446742994 5.8106181025505057 7.9304061383008948 478.57719293236732 205.45688501000404
leaf_count=2665 19 75 43 32 44 2574 1131
internal_value=0 0.899066 0.748112 0.803361 0.839788 0.875766 1.26953
internal_weight=0 722.88 514.009 500.546 492.318 484.388 208.871
internal_count=6583 3918 2768 2693 2650 2606 1150
shrinkage=0.03


Tree=26
num_leaves=5
num_cat=0
split_feature=5 3 5 1
split_gain=1378.54 628.45 2.78538 0.234437
threshold=20.500000000000004 1.0000000180025095e-35 25.500000000000004 10.500000000000002
decision_type=2 2 2 2
left_child=-1 -2 -3 -4
right_child=1 2 3 -5
leaf_value=-0.039275125559054241 -0.039689928494182514 0.024440020948587077 0.031934868732287611 0.038955070379915059
leaf_weight=478.97697518765926 109.14932726323605 14.193748131394385 12.220859512686728 577.71018555760384
leaf_count=2665 591 75 66 3186
internal_value=0 0.883984 1.28305 1.29401
internal_weight=0 713.274 604.125 589.931
internal_count=6583 3918 3327 3252
shrinkage=0.03


Tree=27
num_leaves=13
num_cat=0
split_feature=3 1 2 0 1 3 2 1 1 1 2 1
split_gain=1170.2 39.6355 23.0327 22.6985 42.9559 14.6006 11.969 21.4143 11.0027 9.40401 5.60097 24.9777
threshold=1.0000000180025095e-35 5.5000000000000009 11.500000000000002 3.5000000000000004 69.500000000000014 3.5000000000000004 13.500000000000002 78.500000000000014 94.500000000000014 95.500000000000014 8.5000000000000018 15.500000000000002
decision_type=2 2 2 2 2 2 2 2 2 2 2 2
left_child=-1 -2 9 4 -4 -6 7 -5 -8 10 11 -3
right_child=1 2 3 6 5 -7 8 -9 -10 -11 -12 -13
leaf_value=-0.03869216876671399 -0.040582016116194428 -0.038317876085367346 -0.039810736296679861 -0.039798021506107305 0.027130713497887884 -0.043032203540731236 0.023693796184990751 0.02287283626911463 -0.040866282577990021 -0.036159515258059445 0.037720290743281523 0.029024912068233561
leaf_weight=437.7615192681551 8.5075813233852369 4.9214500933885565 16.425305962562561 7.7054844498634365 27.349958643317226 2.8367351889610282 283.86317449808121 13.110598862171171 2.2750515639781943 1.8398097455501545 67.242764472961426 294.09027776122093
leaf_count=2515 49 27 95 40 149 15 1556 72 13 10 384 1658
internal_value=0 0.777855 0.803294 0.619897 -0.0282025 0.677264 0.718616 -0.00873167 0.771864 0.978965 0.990536 0.929801
internal_weight=0 730.168 721.661 353.566 46.612 30.1867 306.954 20.8161 286.138 368.094 366.254 299.012
internal_count=6583 4068 4019 1940 259 164 1681 112 1569 2079 2069 1685
shrinkage=0.03


Tree=28
num_leaves=8
num_cat=0
split_feature=5 2 2 5 1 1 2
split_gain=1293.23 37.124 51.2139 35.8501 34.1727 27.9474 20.1529
threshold=20.500000000000004 1.5000000000000002 3.5000000000000004 25.500000000000004 93.500000000000014 5.5000000000000009 1.0000000180025095e-35
decision_type=2 2 2 2 2 2 2
left_child=-1 6 -3 -4 5 -5 -2
right_child=1 2 3 4 -6 -7 -8
leaf_value=-0.038727685803582969 -0.036135654445731781 -0.037639229542836307 -0.03976925792754242 -0.041271456010995022 -0.038874355708775392 0.026206352556392767 0.038418992208817733
leaf_weight=462.14916794002056 3.2031200379133216 12.621649995446203 7.8566376566886893 5.4718438386917105 7.4461902678012839 457.42801614105701 193.93521746993065
leaf_count=2665 19 75 43 32 44 2574 1131
internal_value=0 0.871764 0.723775 0.776454 0.812054 0.84645 1.23916
internal_weight=0 687.963 490.824 478.203 470.346 462.9 197.138
internal_count=6583 3918 2768 2693 2650 2606 1150
shrinkage=0.03


Tree=29
num_leaves=8
num_cat=0
split_feature=5 2 2 5 1 1 2
split_gain=1240.1 36.9863 48.8744 34.1944 32.5956 26.6593 19.4139
threshold=20.500000000000004 1.5000000000000002 3.5000000000000004 25.500000000000004 93.500000000000014 5.5000000000000009 1.0000000180025095e-35
decision_type=2 2 2 2 2 2 2
left_child=-1 6 -3 -4 5 -5 -2
right_child=1 2 3 4 -6 -7 -8
leaf_value=-0.038396919876563761 -0.035811469897659036 -0.037327979980751755 -0.03936029305737869 -0.040895715254184749 -0.03854181335952938 0.025676771418377785 0.038099785895620485
leaf_weight=452.29626326262951 3.1370579898357382 12.350028321146963 7.7034791409969321 5.359079807996749 7.2883736342191687 452.92745846509933 189.75725658237934
leaf_count=2665 19 75 43 32 44 2574 1131
internal_value=0 0.85752 0.709614 0.761063 0.795853 0.829433 1.22881
internal_weight=0 678.523 485.628 473.278 465.575 458.287 192.894
internal_count=6583 3918 2768 2693 2650 2606 1150
shrinkage=0.03


Tree=30
num_leaves=8
num_cat=0
split_feature=5 2 2 5 1 1 2
split_gain=1189.42 36.8685 46.6468 32.6186 31.0943 25.433 18.7083
threshold=20.500000000000004 1.5000000000000002 3.5000000000000004 25.500000000000004 93.500000000000014 5.5000000000000009 1.0000000180025095e-35
decision_type=2 2 2 2 2 2 2
left_child=-1 6 -3 -4 5 -5 -2
right_child=1 2 3 4 -6 -7 -8
leaf_value=-0.038081268837534661 -0.035498728507972942 -0.037029828168410689 -0.03896900003458964 -0.040534329520308977 -0.038222708109848333 0.025156209237813327 0.037795055426188967
leaf_weight=442.51270139217377 3.0716256946325293 12.080858767032622 7.5507216304540625 5.2472371757030478 7.1319458931684485 448.50078117847443 185.61208015680313
leaf_count=2665 19 75 43 32 44 2574 1131
internal_value=0 0.843531 0.695692 0.745934 0.779927 0.812706 1.21893
internal_weight=0 669.195 480.512 468.431 460.88 453.748 188.684
internal_count=6583 3918 2768 2693 2650 2606 1150
shrinkage=0.03


Tree=31
num_leaves=8
num_cat=0
split_feature=5 2 2 5 1 1 2
split_gain=1141.04 36.7676 44.5253 31.1186 29.6648 24.2652 18.0344
threshold=20.500000000000004 1.5000000000000002 3.5000000000000004 25.500000000000004 93.500000000000014 5.5000000000000009 1.0000000180025095e-35
decision_type=2 2 2 2 2 2 2
left_child=-1 6 -3 -4 5 -5 -2
right_child=1 2 3 4 -6 -7 -8
leaf_value=-0.037779854723606551 -0.035196716390610013 -0.036744008819182605 -0.038594275511957384 -0.040186273213085474 -0.037916179168814561 0.02464434153549145 0.037503960542497536
leaf_weight=432.80938322842121 3.0068808645009986 11.814393997192381 7.3985861986875525 5.1364460289478293 6.9770664125680915 444.15040346980095 181.50405992567539
leaf_count=2665 19 75 43 32 44 2574 1131
internal_value=0 0.82978 0.682 0.731056 0.764265 0.796257 1.20948
internal_weight=0 659.988 475.477 463.663 456.264 449.287 184.511
internal_count=6583 3918 2768 2693 2650 2606 1150
shrinkage=0.03


Tree=32
num_leaves=10
num_cat=0
split_feature=3 1 3 2 0 1 1 1 3
split_gain=1010.86 33.0562 19.2202 28.4636 31.4337 38.4254 13.0781 9.25424 2.22927
threshold=1.0000000180025095e-35 5.5000000000000009 1.5000000000000002 3.5000000000000004 3.5000000000000004 69.500000000000014 94.500000000000014 18.500000000000004 8.5000000000000018
decision_type=2 2 2 2 2 2 2 2 2
left_child=-1 -2 -3 7 5 -5 -6 -4 -9
right_child=1 2 3 4 6 -7 -8 8 -10
leaf_value=-0.037633617587319229 -0.038924854175399079 0.036560642270485749 -0.033747040193906883 -0.038384042162101249 0.020431747394310928 0.015397519803253226 -0.038341460309472108 0.037105566070856071 0.029236579657418698
leaf_weight=401.00926938652992 7.664345756173133 85.755385637283325 1.8663043081760395 19.542158111929893 332.30652236938477 30.385999917984009 3.3192052692174903 49.913120284676552 142.34105671942234
leaf_count=2515 49 529 12 125 1943 177 21 319 893
internal_value=0 0.750978 0.774913 0.708891 0.55084 -0.187585 0.661011 1.02185 1.04378
internal_weight=0 673.094 665.43 579.674 385.554 49.9282 335.626 194.12 192.254
internal_count=6583 4068 4019 3490 2266 302 1964 1224 1212
shrinkage=0.03


Tree=33
num_leaves=5
num_cat=0
split_feature=5 3 5 1
split_gain=1070.26 552.749 2.75699 0.249876
threshold=20.500000000000004 1.0000000180025095e-35 25.500000000000004 10.500000000000002
decision_type=2 2 2 2
left_child=-1 -2 -3 -4
right_child=1 2 3 -5
leaf_value=-0.037353805217843566 -0.03902783755330419 0.021877656020917104 0.029862518106265827 0.037139750202358573
leaf_weight=416.69076350331306 103.4992810189724 12.605572655797003 11.162875190377234 513.13836331665516
leaf_count=2665 591 75 66 3186
internal_value=0 0.81371 1.2217 1.23321
internal_weight=0 640.406 536.907 524.301
internal_count=6583 3918 3327 3252
shrinkage=0.03


Tree=34
num_leaves=8
num_cat=0
split_feature=5 2 2 5 1 0 2
split_gain=1030.6 34.0519 39.4672 28.5007 26.4158 22.969 16.1112
threshold=20.500000000000004 1.5000000000000002 3.5000000000000004 25.500000000000004 93.500000000000014 3.5000000000000004 1.0000000180025095e-35
decision_type=2 2 2 2 2 2 2
left_child=-1 6 -3 -4 5 -5 -2
right_child=1 2 3 4 -6 -7 -8
leaf_value=-0.037085106991896183 -0.034293002684192025 -0.035926299869200033 -0.03810352801231786 0.0066287544599787822 -0.03715821968486295 0.026090655052460703 0.036749975633976209
leaf_weight=407.26183937489986 2.8044460117816916 11.005186200141905 7.0356320589780799 64.795629173517227 6.5114239007234564 364.31395997107029 170.1337668299675
leaf_count=2665 19 75 43 388 44 2218 1131
internal_value=0 0.806975 0.662274 0.708999 0.741477 0.772037 1.18538
internal_weight=0 626.6 453.662 442.657 435.621 429.11 172.938
internal_count=6583 3918 2768 2693 2650 2606 1150
shrinkage=0.03


Tree=35
num_leaves=5
num_cat=0
split_feature=5 3 5 1
split_gain=989.442 529.938 2.7448 0.276436
threshold=20.500000000000004 1.0000000180025095e-35 25.500000000000004 10.500000000000002
decision_type=2 2 2 2
left_child=-1 -2 -3 -4
right_child=1 2 3 -5
leaf_value=-0.036827965029215211 -0.038791486917038473 0.021197044298349194 0.029143687088340389 0.036645832053157107
leaf_weight=397.94384534657001 101.53318084776402 12.232000321149824 10.812435463070868 493.26850700378418
leaf_count=2665 591 75 66 3186
internal_value=0 0.794019 1.20481 1.21656
internal_weight=0 617.846 516.313 504.081
internal_count=6583 3918 3327 3252
shrinkage=0.03


Tree=36
num_leaves=5
num_cat=0
split_feature=5 3 5 2
split_gain=953.236 510.156 2.78911 13.1419
threshold=20.500000000000004 1.0000000180025095e-35 25.500000000000004 3.5000000000000004
decision_type=2 2 2 2
left_child=-1 -2 3 -3
right_child=1 2 -4 -5
leaf_value=-0.0365817484803918 -0.038457175385224404 0.036255870159994805 0.036225487221625448 -0.040973507185798813
leaf_weight=388.74332581460476 99.376828491687775 9.7602281570434553 492.79538036882877 2.3609172850847235
leaf_count=2665 591 64 3252 11
internal_value=0 0.787756 1.19547 0.691858
internal_weight=0 604.293 504.917 12.1211
internal_count=6583 3918 3327 75
shrinkage=0.03


Tree=37
num_leaves=6
num_cat=0
split_feature=5 3 5 2 1
split_gain=918.654 491.344 2.69844 12.6529 0.314629
threshold=20.500000000000004 1.0000000180025095e-35 25.500000000000004 3.5000000000000004 10.500000000000002
decision_type=2 2 2 2 2
left_child=-1 -2 3 -3 -4
right_child=1 2 4 -5 -6
leaf_value=-0.036345876994211546 -0.03813795260800338 0.035995988204540197 0.028301387403999376 -0.0403953207783984 0.036121196176422385
leaf_weight=379.66600798070431 97.23559333384037 9.5398283004760724 10.402208894491194 2.3248456716537467 471.24810396134853
leaf_count=2665 591 64 66 11 3186
internal_value=0 0.781909 1.18682 0.68547 1.19881
internal_weight=0 590.751 493.515 11.8647 481.65
internal_count=6583 3918 3327 75 3252
shrinkage=0.03


Tree=38
num_leaves=6
num_cat=0
split_feature=5 3 5 2 1
split_gain=885.544 473.347 2.6108 12.1861 0.326824
threshold=20.500000000000004 1.0000000180025095e-35 25.500000000000004 3.5000000000000004 10.500000000000002
decision_type=2 2 2 2 2
left_child=-1 -2 3 -3 -4
right_child=1 2 4 -5 -6
leaf_value=-0.036119807364291066 -0.037832943743615968 0.035746077946079147 0.02793851513299845 -0.039844016316762695 0.035873614449731292
leaf_weight=370.71692106127739 95.111841544508934 9.3223161697387678 10.225185900926588 2.2882409244775763 460.42967520654202
leaf_count=2665 591 64 66 11 3186
internal_value=0 0.776299 1.1785 0.679312 1.19045
internal_weight=0 577.377 482.265 11.6106 470.655
internal_count=6583 3918 3327 75 3252
shrinkage=0.03


Tree=39
num_leaves=6
num_cat=0
split_feature=5 3 5 2 1
split_gain=853.82 456.116 2.52598 11.7403 0.339387
threshold=20.500000000000004 1.0000000180025095e-35 25.500000000000004 3.5000000000000004 10.500000000000002
decision_type=2 2 2 2 2
left_child=-1 -2 3 -3 -4
right_child=1 2 4 -5 -6
leaf_value=-0.035903031469475821 -0.03754133427633375 0.03550557179130498 0.027580969566303532 -0.039317616437295914 0.035635481723843267
leaf_weight=361.90043745934963 93.007715597748756 9.107820510864256 10.050953209400175 2.2512100189924231 449.76322692632675
leaf_count=2665 591 64 66 11 3186
internal_value=0 0.770902 1.17049 0.67337 1.1824
internal_weight=0 564.181 471.173 11.359 459.814
internal_count=6583 3918 3327 75 3252
shrinkage=0.03


Tree=40
num_leaves=10
num_cat=0
split_feature=3 1 3 2 0 1 1 1 3
split_gain=756.042 25.5107 15.2914 21.9173 23.1503 34.7564 10.5393 6.79362 1.83053
threshold=1.0000000180025095e-35 5.5000000000000009 1.5000000000000002 3.5000000000000004 4.5000000000000009 35.500000000000007 94.500000000000014 18.500000000000004 8.5000000000000018
decision_type=2 2 2 2 2 2 2 2 2
left_child=-1 -2 -3 7 5 -5 -6 -4 -9
right_child=1 2 3 4 6 -7 -8 8 -10
leaf_value=-0.035780718023088895 -0.03813084372826557 0.034700991091216493 -0.031380958603554755 -0.037823022564738386 0.020203364697092413 0.011644281356099023 -0.037443539885773494 0.035293721709862988 0.027416111907141442
leaf_weight=334.01331141591072 6.3585990965366355 72.009815096855164 1.5425702035427082 16.462357416749001 254.84587104618549 55.907841756939888 2.7623049765825263 41.430744111537933 119.05602990090847
leaf_count=2515 49 529 12 120 1741 384 21 319 893
internal_value=0 0.70154 0.724177 0.660448 0.511628 0.0104561 0.651976 0.962405 0.982972
internal_weight=0 570.376 564.018 492.008 329.978 72.3702 257.608 162.029 160.487
internal_count=6583 4068 4019 3490 2266 504 1762 1224 1212
shrinkage=0.03


Tree=41
num_leaves=7
num_cat=0
split_feature=5 3 5 2 2 2
split_gain=806.167 425.501 2.52245 11.2287 0.023389 1.0365
threshold=20.500000000000004 1.0000000180025095e-35 25.500000000000004 3.5000000000000004 23.500000000000004 24.500000000000004
decision_type=2 2 2 2 2 2
left_child=-1 -2 3 -3 -4 -6
right_child=1 2 4 -5 5 -7
leaf_value=-0.035603125178172094 -0.037005779081353052 0.035050599248344909 0.035664832219521658 -0.038906590886829823 0.029746925418548596 0.036037902037818155
leaf_weight=347.50924349576235 88.947534456849098 8.6881828308105451 307.56793914735317 2.2163043022155753 50.490427911281586 83.711681738495827
leaf_count=2665 591 64 2305 11 351 596
internal_value=0 0.764468 1.15747 0.650982 1.16959 1.12391
internal_weight=0 541.622 452.675 10.9045 441.77 134.202
internal_count=6583 3918 3327 75 3252 947
shrinkage=0.03


Tree=42
num_leaves=6
num_cat=0
split_feature=5 3 5 2 1
split_gain=777.719 410.259 2.44084 10.8249 0.383129
threshold=20.500000000000004 1.0000000180025095e-35 25.500000000000004 3.5000000000000004 10.500000000000002
decision_type=2 2 2 2 2
left_child=-1 -2 3 -3 -4
right_child=1 2 4 -5 -6
leaf_value=-0.035407660239416869 -0.036749606069139788 0.034835308579156968 0.026580785961184236 -0.038421222625589703 0.035043143002376653
leaf_weight=339.07283605635166 86.912009283900261 8.4833364486694318 9.548797279596327 2.1788046061992636 421.82597568631172
leaf_count=2665 591 64 66 11 3186
internal_value=0 0.759594 1.15021 0.645623 1.1623
internal_weight=0 528.949 442.037 10.6621 431.375
internal_count=6583 3918 3327 75 3252
shrinkage=0.03


Tree=43
num_leaves=10
num_cat=0
split_feature=3 1 3 2 0 1 1 1 3
split_gain=675.307 23.0561 14.278 20.2155 20.605 31.229 9.52229 6.05512 1.77959
threshold=1.0000000180025095e-35 5.5000000000000009 1.5000000000000002 3.5000000000000004 4.5000000000000009 35.500000000000007 94.500000000000014 18.500000000000004 8.5000000000000018
decision_type=2 2 2 2 2 2 2 2 2
left_child=-1 -2 -3 7 5 -5 -6 -4 -9
right_child=1 2 3 4 6 -7 -8 8 -10
leaf_value=-0.035191930208073666 -0.037914977317080462 0.034074078110437091 -0.030612988974714754 -0.037375773928500396 0.019487638147888252 0.011116002369399067 -0.037215234068671998 0.034736054131088871 0.026686637151856464
leaf_weight=310.08559777587652 5.9095444008707991 67.003066688776016 1.4344503879547108 15.304883331060408 241.62944531440735 53.224818103015423 2.5705126821994773 38.448027446866035 111.64427207410336
leaf_count=2515 49 529 12 120 1741 384 21 319 893
internal_value=0 0.680049 0.702094 0.639053 0.49285 0.00679461 0.628783 0.939612 0.959678
internal_weight=0 537.169 531.259 464.256 312.73 68.5297 244.2 151.527 150.092
internal_count=6583 4068 4019 3490 2266 504 1762 1224 1212
shrinkage=0.03


Tree=44
num_leaves=6
num_cat=0
split_feature=5 3 5 2 1
split_gain=735.336 383.093 2.43681 10.3622 0.398927
threshold=20.500000000000004 1.0000000180025095e-35 25.500000000000004 3.5000000000000004 10.500000000000002
decision_type=2 2 2 2 2
left_child=-1 -2 3 -3 -4
right_child=1 2 4 -5 -6
leaf_value=-0.035145509375436666 -0.036277132820930522 0.034426210789103774 0.026057501738829026 -0.038049825611315542 0.034702150873506692
leaf_weight=325.39939465373755 82.991461649537086 8.0831947326660138 9.2819874286651594 2.1434000283479682 404.91853592544794
leaf_count=2665 591 64 66 11 3186
internal_value=0 0.754095 1.13843 0.624134 1.15073
internal_weight=0 507.419 424.427 10.2266 414.201
internal_count=6583 3918 3327 75 3252
shrinkage=0.03


Tree=45
num_leaves=6
num_cat=0
split_feature=5 3 5 2 1
split_gain=709.716 369.557 2.35808 9.99539 0.41312
threshold=20.500000000000004 1.0000000180025095e-35 25.500000000000004 3.5000000000000004 10.500000000000002
decision_type=2 2 2 2 2
left_child=-1 -2 3 -3 -4
right_child=1 2 4 -5 -6
leaf_value=-0.034968491388412105 -0.036051077952611824 0.034232254180772734 0.025722823923601697 -0.037599941451431022 0.034506377322149111
leaf_weight=317.35726770758629 81.036669723689556 7.888631343841551 9.1243705302476865 2.1057413518428802 395.14764366298914
leaf_count=2665 591 64 66 11 3186
internal_value=0 0.749646 1.1318 0.619266 1.14407
internal_weight=0 495.303 414.266 9.99437 404.272
internal_count=6583 3918 3327 75 3252
shrinkage=0.03


Tree=46
num_leaves=5
num_cat=0
split_feature=5 3 5 1
split_gain=685.107 356.561 2.28187 0.427581
threshold=20.500000000000004 1.0000000180025095e-35 25.500000000000004 10.500000000000002
decision_type=2 2 2 2
left_child=-1 -2 -3 -4
right_child=1 2 3 -5
leaf_value=-0.034798294917434885 -0.035834155404595551 0.018436133260619447 0.02539156837315272 0.034317245295808534
leaf_weight=309.46192523092031 79.111119896173477 9.7656327337026578 8.9697612076997739 385.55124766379595
leaf_count=2665 591 75 66 3186
internal_value=0 0.745347 1.12538 1.13761
internal_weight=0 483.398 404.287 394.521
internal_count=6583 3918 3327 3252
shrinkage=0.03


Tree=47
num_leaves=6
num_cat=0
split_feature=5 3 5 2 1
split_gain=661.387 343.981 2.33015 9.70893 0.442295
threshold=20.500000000000004 1.0000000180025095e-35 25.500000000000004 3.5000000000000004 10.500000000000002
decision_type=2 2 2 2 2
left_child=-1 -2 3 -3 -4
right_child=1 2 4 -5 -6
leaf_value=-0.034634605454030389 -0.035625900749071647 0.03394571311319268 0.025063516056056601 -0.037378151858076233 0.03413440278873469
leaf_weight=301.7142750993371 77.215595133602619 7.5957164764404279 8.8181651383638364 2.0865882188081741 376.13088687509298
leaf_count=2665 591 64 66 11 3186
internal_value=0 0.740973 1.11877 0.601446 1.13137
internal_weight=0 471.847 394.631 9.6823 384.949
internal_count=6583 3918 3327 75 3252
shrinkage=0.03


Tree=48
num_leaves=10
num_cat=0
split_feature=3 1 3 2 0 1 1 1 3
split_gain=562.492 19.7853 12.5808 17.6727 17.3979 23.2929 7.87948 5.01928 1.63215
threshold=1.0000000180025095e-35 5.5000000000000009 1.5000000000000002 3.5000000000000004 3.5000000000000004 69.500000000000014 94.500000000000014 18.500000000000004 8.5000000000000018
decision_type=2 2 2 2 2 2 2 2 2
left_child=-1 -2 -3 7 5 -5 -6 -4 -9
right_child=1 2 3 4 6 -7 -8 8 -10
leaf_value=-0.034353259040857148 -0.037877361032738262 0.033199521726116024 -0.02938468905049518 -0.036467102692398744 0.017422888130703588 0.013114324868588378 -0.037250758371244565 0.033957580124867548 0.025738904448384798
leaf_weight=272.91347324103117 5.2161820381879798 59.218555025756359 1.2643530666828144 13.478753708302973 243.92710663378239 22.738948985934258 2.2708284854888907 33.93867152184248 99.515094563364983
leaf_count=2515 49 529 12 125 1943 177 21 319 893
internal_value=0 0.651584 0.673015 0.610964 0.467783 -0.176829 0.56305 0.909809 0.929177
internal_weight=0 481.568 476.352 417.134 282.416 36.2177 246.198 134.718 133.454
internal_count=6583 4068 4019 3490 2266 302 1964 1224 1212
shrinkage=0.03


Tree=49
num_leaves=6
num_cat=0
split_feature=5 3 5 2 1
split_gain=626.564 321.64 2.32878 9.30544 0.460633
threshold=20.500000000000004 1.0000000180025095e-35 25.500000000000004 3.5000000000000004 10.500000000000002
decision_type=2 2 2 2 2
left_child=-1 -2 3 -3 -4
right_child=1 2 4 -5 -6
leaf_value=-0.034424474027225309 -0.035239396432279954 0.033593344961279761 0.024566997023773476 -0.037059005141715222 0.033846438249888117
leaf_weight=289.30810119956732 73.572419039905071 7.2270650863647443 8.576075464487074 2.0510139316320419 360.73181768506765
leaf_count=2665 591 64 66 11 3186
internal_value=0 0.736767 1.1087 0.58088 1.12153
internal_weight=0 452.158 378.586 9.27808 369.308
internal_count=6583 3918 3327 75 3252
shrinkage=0.03


Tree=50
num_leaves=11
num_cat=0
split_feature=3 1 3 2 0 3 1 4 1 0
split_gain=519.96 18.8997 13.0761 17.2637 16.4257 25.8237 6.70609 1.95188 6.30232 5.95418
threshold=1.0000000180025095e-35 5.5000000000000009 1.5000000000000002 3.5000000000000004 4.5000000000000009 4.5000000000000009 94.500000000000014 5.5000000000000009 30.500000000000004 6.5000000000000009
decision_type=2 2 2 2 2 2 2 2 2 2
left_child=-1 -2 -3 7 5 -5 -6 8 -4 -9
right_child=1 2 3 4 6 -7 -8 9 -10 -11
leaf_value=-0.034076177630215088 -0.037635925476420737 0.032892879752172248 -0.031397225719071165 0.0090548868497509066 0.017518156942193708 -0.041381573044537379 -0.037680222063477403 0.022874852392016063 0.029672828856371302 -0.032756286480669125
leaf_weight=261.76259133219719 5.149463824927806 57.724805191159248 1.4198889285325993 44.949806049466133 215.35475413501263 11.356416814029215 1.8748170286416996 24.391186892986301 98.258965350687504 1.7341602146625508
leaf_count=2536 51 542 11 378 1770 96 18 222 947 12
internal_value=0 0.627731 0.649426 0.584303 0.44229 -0.0373266 0.567028 0.891689 0.958075 0.631898
internal_weight=0 462.214 457.065 399.34 273.536 56.3062 217.23 125.804 99.6789 26.1253
internal_count=6583 4047 3996 3454 2262 474 1788 1192 958 234
shrinkage=0.03


Tree=51
num_leaves=6
num_cat=0
split_feature=5 3 5 2 1
split_gain=588.096 309.542 1.78101 8.14681 0.477045
threshold=20.500000000000004 1.0000000180025095e-35 25.500000000000004 3.5000000000000004 10.500000000000002
decision_type=2 2 2 2 2
left_child=-1 -2 3 -3 -4
right_child=1 2 4 -5 -6
leaf_value=-0.034242419306776413 -0.034898040576697813 0.033327742512026109 0.024087433158052996 -0.036101711667743522 0.033566877646239134
leaf_weight=279.07042372226715 72.475083626806736 7.0369061827659589 8.3451799452304822 1.8072762787342069 342.71393052488565
leaf_count=2675 610 65 66 10 3157
internal_value=0 0.720413 1.10023 0.618656 1.1119
internal_weight=0 432.378 359.903 8.84418 351.059
internal_count=6583 3908 3298 75 3223
shrinkage=0.03


Tree=52
num_leaves=8
num_cat=0
split_feature=5 2 2 5 1 1 2
split_gain=568.134 20.0091 20.995 14.959 13.7955 13.9539 8.28526
threshold=20.500000000000004 1.5000000000000002 3.5000000000000004 25.500000000000004 93.500000000000014 5.5000000000000009 1.0000000180025095e-35
decision_type=2 2 2 2 2 2 2
left_child=-1 6 -3 -4 5 -5 -2
right_child=1 2 3 4 -6 -7 -8
leaf_value=-0.03410034404214634 -0.030001334740985691 -0.032526755340678275 -0.03429577562030784 -0.039573418877025306 -0.035326739785899341 0.021093920749298271 0.033649402691328725
leaf_weight=271.9343464449048 1.749676689505576 7.2125619351863852 4.5729985013604155 3.3298593387007704 3.9280496314167967 293.17789796739817 107.69688002020121
leaf_count=2675 19 79 41 33 42 2593 1101
internal_value=0 0.716827 0.586814 0.626999 0.654648 0.679646 1.08593
internal_weight=0 421.668 312.221 305.009 300.436 296.508 109.447
internal_count=6583 3908 2788 2709 2668 2626 1120
shrinkage=0.03


Tree=53
num_leaves=7
num_cat=0
split_feature=5 3 5 2 2 2
split_gain=546.722 298.529 1.68503 7.60756 0.251978 1.51172
threshold=20.500000000000004 1.0000000180025095e-35 25.500000000000004 3.5000000000000004 23.500000000000004 24.500000000000004
decision_type=2 2 2 2 2 2
left_child=-1 -2 3 -3 -4 -6
right_child=1 2 4 -5 5 -7
leaf_value=-0.033963456300466807 -0.034797659870291257 0.033011583714914312 0.033895248846298132 -0.035352053953386482 0.025981483757764826 0.034219882371645853
leaf_weight=264.94540343433619 70.953789114952087 6.6876296326518041 233.20791597664356 1.7417096793651579 38.896337613463402 63.858781345188618
leaf_count=2675 610 65 2297 10 343 583
internal_value=0 0.706015 1.09096 0.609513 1.10256 1.03863
internal_weight=0 415.346 344.392 8.42934 335.963 102.755
internal_count=6583 3908 3298 75 3223 926
shrinkage=0.03


Tree=54
num_leaves=10
num_cat=0
split_feature=5 2 2 0 1 4 5 1 2
split_gain=528.299 19.5366 19.3589 14.07 20.0718 13.4354 11.1718 10.0048 7.74223
threshold=20.500000000000004 1.5000000000000002 3.5000000000000004 3.5000000000000004 36.500000000000007 5.5000000000000009 25.500000000000004 94.500000000000014 1.0000000180025095e-35
decision_type=2 2 2 2 2 2 2 2 2
left_child=-1 8 -3 4 -4 -6 -5 -8 -2
right_child=1 2 3 6 5 -7 7 -9 -10
leaf_value=-0.033831535213605907 -0.029626067447161598 -0.03226153727968846 -0.03547503246190041 -0.033770589814496696 0.01995304326522913 -0.038540210390335845 0.022477081575412648 -0.036141288049893444 0.03340449266950378
leaf_weight=258.10289569944143 1.6612180769443501 6.8330908492207518 9.5618389099836332 3.166151098906993 31.169249653816223 3.8613266125321379 244.08313641697168 2.5241484865546218 102.12944824248552
leaf_count=2675 19 79 82 29 291 33 2246 28 1101
internal_value=0 0.702639 0.572654 0.611602 0.0913595 0.444291 0.704008 0.728351 1.07797
internal_weight=0 404.99 301.199 294.366 44.5924 35.0306 249.773 246.607 103.791
internal_count=6583 3908 2788 2709 406 324 2303 2274 1120
shrinkage=0.03


Tree=55
num_leaves=8
num_cat=0
split_feature=5 3 5 2 1 2 2
split_gain=508.718 286.728 1.60261 7.12937 0.549345 0.0192765 0.636991
threshold=20.500000000000004 1.0000000180025095e-35 25.500000000000004 3.5000000000000004 10.500000000000002 23.500000000000004 24.500000000000004
decision_type=2 2 2 2 2 2 2
left_child=-1 -2 3 -3 -4 -6 -7
right_child=1 2 4 -5 5 6 -8
leaf_value=-0.033704362089829666 -0.034666594866059094 0.032712538376177706 0.022843944156147013 -0.034679690082830415 0.033666177806615342 0.027647761437607398 0.033901254226097126
leaf_weight=251.40597655624151 69.202652737498283 6.3526051864027959 7.7831671908497801 1.6815643310546873 222.46203378587961 36.977592088282108 53.976637527346611
leaf_count=2675 610 65 66 10 2297 340 520
internal_value=0 0.692876 1.08194 0.599516 1.0935 1.10119 1.0475
internal_weight=0 398.436 329.234 8.03417 321.199 313.416 90.9542
internal_count=6583 3908 3298 75 3223 3157 860
shrinkage=0.03


Tree=56
num_leaves=8
num_cat=0
split_feature=5 3 5 2 1 2 2
split_gain=491.694 276.968 1.55076 6.8907 0.565618 0.0344945 0.653873
threshold=20.500000000000004 1.0000000180025095e-35 25.500000000000004 3.5000000000000004 10.500000000000002 23.500000000000004 24.500000000000004
decision_type=2 2 2 2 2 2 2
left_child=-1 -2 3 -3 -4 -6 -7
right_child=1 2 4 -5 5 6 -8
leaf_value=-0.033581737062869599 -0.034503818136202756 0.032570132868875945 0.022534611788125838 -0.034336937852132189 0.033543387279304775 0.027392059690088504 0.033764533057633106
leaf_weight=244.8535893112421 67.469901189208031 6.191835217177867 7.6566068828105918 1.648892357945442 216.66598787158728 36.215586118400097 52.590683706104755
leaf_count=2675 610 65 66 10 2297 340 520
internal_value=0 0.689689 1.07698 0.595555 1.08852 1.0964 1.04111
internal_weight=0 388.439 320.97 7.84073 313.129 305.472 88.8063
internal_count=6583 3908 3298 75 3223 3157 860
shrinkage=0.03


Tree=57
num_leaves=5
num_cat=0
split_feature=5 3 5 1
split_gain=475.293 267.57 1.50052 0.582027
threshold=20.500000000000004 1.0000000180025095e-35 25.500000000000004 10.500000000000002
decision_type=2 2 2 2
left_child=-1 -2 -3 -4
right_child=1 2 3 -5
leaf_value=-0.033463466056493571 -0.034347061382101245 0.017750101120819841 0.022227213041935766 0.032752453009775848
leaf_weight=238.4445373415947 65.7706189006567 7.6511197984218589 7.5328893959522238 297.70044698566198
leaf_count=2675 610 75 66 3157
internal_value=0 0.686589 1.07214 1.08366
internal_weight=0 378.655 312.884 305.233
internal_count=6583 3908 3298 3223
shrinkage=0.03


Tree=58
num_leaves=7
num_cat=0
split_feature=5 3 5 2 2 2
split_gain=459.425 258.435 1.54242 6.70901 0.359414 1.70107
threshold=20.500000000000004 1.0000000180025095e-35 25.500000000000004 3.5000000000000004 23.500000000000004 24.500000000000004
decision_type=2 2 2 2 2 2
left_child=-1 -2 3 -3 -4 -6
right_child=1 2 4 -5 5 -7
leaf_value=-0.03334936652047512 -0.034196050021267327 0.032356937188207188 0.033313160836017847 -0.034175472821551089 0.024498454565714738 0.033600110372149737
leaf_weight=232.17749781906605 64.104838512837887 5.9500782936811438 205.56209326535463 1.63326059281826 35.137888044118881 56.8068757802248
leaf_count=2675 610 65 2297 10 343 583
internal_value=0 0.683336 1.067 0.579292 1.0789 1.00616
internal_weight=0 369.195 305.09 7.58334 297.507 91.9448
internal_count=6583 3908 3298 75 3223 926
shrinkage=0.03


Tree=59
num_leaves=7
num_cat=0
split_feature=5 3 5 2 2 2
split_gain=444.19 249.714 1.49302 6.48617 0.383243 1.72668
threshold=20.500000000000004 1.0000000180025095e-35 25.500000000000004 3.5000000000000004 23.500000000000004 24.500000000000004
decision_type=2 2 2 2 2 2
left_child=-1 -2 3 -3 -4 -6
right_child=1 2 4 -5 5 -7
leaf_value=-0.033239269969450772 -0.034050519809635742 0.032223380168796015 0.033203014903503823 -0.033847611371142054 0.024221736944897477 0.033474860756802068
leaf_weight=226.05096541345119 62.472537770867348 5.7982066273689261 200.13890305161476 1.6010649055242536 34.484217308461666 55.331497624516487
leaf_count=2675 610 65 2297 10 343 583
internal_value=0 0.680384 1.06238 0.575537 1.07426 0.999548
internal_weight=0 359.826 297.354 7.39927 289.955 89.8157
internal_count=6583 3908 3298 75 3223 926
shrinkage=0.03


Tree=60
num_leaves=8
num_cat=0
split_feature=5 2 2 1 1 5 2
split_gain=429.504 16.9529 15.4541 11.8242 11.1715 10.6986 6.27539
threshold=20.500000000000004 1.5000000000000002 3.5000000000000004 5.5000000000000009 93.500000000000014 25.500000000000004 1.0000000180025095e-35
decision_type=2 2 2 2 2 2 2
left_child=-1 6 -3 -4 5 -5 -2
right_child=1 2 3 4 -6 -7 -8
leaf_value=-0.03313300612570836 -0.028474285994412464 -0.031521673028541454 -0.039985410230067152 -0.033021980995657139 -0.035187664968472226 0.019762785834399582 0.03277061687054611
leaf_weight=220.06339491158724 1.4074671491980542 5.774028666317462 3.0507955327630034 3.3761050105094901 3.3416591659188262 246.77398120611906 86.94099897146225
leaf_count=2675 19 79 37 35 44 2593 1101
internal_value=0 0.677504 0.548731 0.585515 0.609513 0.634183 1.05766
internal_weight=0 350.665 262.317 256.543 253.492 250.15 88.3485
internal_count=6583 3908 2788 2709 2672 2628 1120
shrinkage=0.03


Tree=61
num_leaves=7
num_cat=0
split_feature=5 3 5 2 2 2
split_gain=413.568 241.149 1.40993 6.06616 0.417419 1.78257
threshold=20.500000000000004 1.0000000180025095e-35 25.500000000000004 3.5000000000000004 23.500000000000004 24.500000000000004
decision_type=2 2 2 2 2 2
left_child=-1 -2 3 -3 -4 -6
right_child=1 2 4 -5 5 -7
leaf_value=-0.033030420168139403 -0.033973009002982966 0.031962836855435606 0.033021573191609366 -0.033223729491606187 0.02374025969417257 0.033284416449697117
leaf_weight=214.21309925615788 61.138028047978878 5.5016816034913054 190.87197337299585 1.538232162594795 33.346143089234829 53.048657476902008
leaf_count=2675 610 65 2297 10 343 583
internal_value=0 0.667199 1.05481 0.567782 1.06661 0.9889
internal_weight=0 345.445 284.307 7.03991 277.267 86.3948
internal_count=6583 3908 3298 75 3223 926
shrinkage=0.03


Tree=62
num_leaves=8
num_cat=0
split_feature=5 3 5 2 1 2 2
split_gain=399.964 233.061 1.36439 5.86728 0.715373 0.119508 0.761058
threshold=20.500000000000004 1.0000000180025095e-35 25.500000000000004 3.5000000000000004 10.500000000000002 23.500000000000004 24.500000000000004
decision_type=2 2 2 2 2 2 2
left_child=-1 -2 3 -3 -4 -6 -7
right_child=1 2 4 -5 5 6 -8
leaf_value=-0.0329313610746002 -0.03383559297462474 0.031838226260430334 0.020340998692042436 -0.032921807522162332 0.032921685334188551 0.025968035623345615 0.033085745664743163
leaf_weight=208.49830092489719 59.568842932581902 5.3600492328405371 6.79648683220148 1.5071567371487615 185.78467003256083 32.202963188290596 45.391246154904366
leaf_count=2675 610 65 66 10 2297 340 520
internal_value=0 0.664453 1.05046 0.564204 1.06223 1.07151 1.00692
internal_weight=0 336.611 277.043 6.86721 270.175 263.379 77.5942
internal_count=6583 3908 3298 75 3223 3157 860
shrinkage=0.03


Tree=63
num_leaves=7
num_cat=0
split_feature=5 3 5 2 2 2
split_gain=386.848 225.265 1.32029 5.6757 0.467118 1.85073
threshold=20.500000000000004 1.0000000180025095e-35 25.500000000000004 3.5000000000000004 23.500000000000004 24.500000000000004
decision_type=2 2 2 2 2 2
left_child=-1 -2 3 -3 -4 -6
right_child=1 2 4 -5 5 -7
leaf_value=-0.032835694028505266 -0.033703039384540237 0.031716244770213661 0.032825262358583941 -0.0326275040926352 0.023163912534915086 0.033066491392970555
leaf_weight=202.91713805496693 58.032627001404762 5.2217187359929076 180.81579831987619 1.4764953181147573 32.076494380831718 50.35889895260334
leaf_count=2675 610 65 2297 10 343 583
internal_value=0 0.66178 1.0462 0.560676 1.05796 0.976079
internal_weight=0 327.982 269.949 6.69821 263.251 82.4354
internal_count=6583 3908 3298 75 3223 926
shrinkage=0.03


Tree=64
num_leaves=7
num_cat=0
split_feature=5 3 5 2 2 2
split_gain=374.189 217.745 1.27748 5.49109 0.492708 1.87867
threshold=20.500000000000004 1.0000000180025095e-35 25.500000000000004 3.5000000000000004 23.500000000000004 24.500000000000004
decision_type=2 2 2 2 2 2
left_child=-1 -2 3 -3 -4 -6
right_child=1 2 4 -5 5 -7
leaf_value=-0.032743275638920412 -0.033575132305598332 0.03159673066679819 0.032732162601657802 -0.032340337505753887 0.022890525750072117 0.032959624849454298
leaf_weight=197.46771985292435 56.529180459678173 5.0866445899009696 175.96371439099312 1.4462635591626165 31.495830997824669 49.026949979364872
leaf_count=2675 610 65 2297 10 343 583
internal_value=0 0.659155 1.04202 0.557193 1.05376 0.969722
internal_weight=0 319.549 263.019 6.53291 256.486 80.5228
internal_count=6583 3908 3298 75 3223 926
shrinkage=0.03


Tree=65
num_leaves=8
num_cat=0
split_feature=5 3 5 2 1 2 2
split_gain=361.975 210.491 1.23597 5.31317 0.808432 0.166405 0.808116
threshold=20.500000000000004 1.0000000180025095e-35 25.500000000000004 3.5000000000000004 10.500000000000002 23.500000000000004 24.500000000000004
decision_type=2 2 2 2 2 2 2
left_child=-1 -2 3 -3 -4 -6 -7
right_child=1 2 4 -5 5 6 -8
leaf_value=-0.032653983344649251 -0.033451671645084384 0.031479543718519909 0.019098098879634536 -0.032059859018695055 0.032642251318040001 0.025273352010203521 0.032770761057819724
leaf_weight=192.14803965389729 55.058260403573513 4.9547773972153655 6.3688745945692053 1.4164749607443807 171.22672471404076 30.414722263813019 41.871347434818745
leaf_count=2675 610 65 66 10 2297 340 520
internal_value=0 0.656586 1.03792 0.553752 1.04963 1.05976 0.989897
internal_weight=0 311.311 256.253 6.37125 249.882 243.513 72.2861
internal_count=6583 3908 3298 75 3223 3157 860
shrinkage=0.03


Tree=66
num_leaves=8
num_cat=0
split_feature=5 3 5 2 1 2 2
split_gain=350.192 203.495 1.19577 5.14165 0.824474 0.183798 0.828711
threshold=20.500000000000004 1.0000000180025095e-35 25.500000000000004 3.5000000000000004 10.500000000000002 23.500000000000004 24.500000000000004
decision_type=2 2 2 2 2 2 2
left_child=-1 -2 3 -3 -4 -6 -7
right_child=1 2 4 -5 5 6 -8
leaf_value=-0.032567689453742332 -0.033332463013267526 0.031364532083186875 0.01880898946864705 -0.031785639435570195 0.032555399760794121 0.025025779118028484 0.032672796936140336
leaf_weight=186.95608346909285 53.61959632858634 4.8260687291622153 6.2757239192724219 1.3871412724256513 166.60308141261339 29.804395332932472 40.754149317741394
leaf_count=2675 610 65 66 10 2297 340 520
internal_value=0 0.654078 1.03389 0.550349 1.04559 1.05598 0.98417
internal_weight=0 303.27 249.651 6.21321 243.437 237.162 70.5585
internal_count=6583 3908 3298 75 3223 3157 860
shrinkage=0.03


Tree=67
num_leaves=9
num_cat=0
split_feature=5 2 2 1 1 5 2 2
split_gain=338.818 14.3585 11.929 10.1786 9.13063 8.34347 4.92556 0.0920636
threshold=20.500000000000004 1.5000000000000002 3.5000000000000004 5.5000000000000009 93.500000000000014 25.500000000000004 1.0000000180025095e-35 21.500000000000004
decision_type=2 2 2 2 2 2 2 2
left_child=-1 6 -3 7 5 -5 -2 -4
right_child=1 2 3 4 -6 -7 -8 -9
leaf_value=-0.032484279768560838 -0.027144281335526543 -0.030763194170334827 -0.02845160101535751 -0.03176972758539244 -0.035575598727510122 0.018905485831669951 0.032174496222007062 -0.055838888593167303
leaf_weight=181.88977300748229 1.1558972075581539 4.7270707637071601 1.596208177506923 2.8349948972463599 2.7536394558846942 209.7439174503088 71.660869147628546 0.9470868706703186
leaf_count=2675 19 79 26 35 44 2593 1101 11
internal_value=0 0.65162 0.524198 0.558733 0.582771 0.606698 1.03853 -1.38373
internal_weight=0 295.42 222.603 217.876 215.333 212.579 72.8168 2.5433
internal_count=6583 3908 2788 2709 2672 2628 1120 37
shrinkage=0.03


Tree=68
num_leaves=8
num_cat=0
split_feature=5 3 5 2 1 2 2
split_gain=326.365 196.709 1.12664 4.81446 0.846819 0.21018 0.870892
threshold=20.500000000000004 1.0000000180025095e-35 25.500000000000004 3.5000000000000004 10.500000000000002 23.500000000000004 24.500000000000004
decision_type=2 2 2 2 2 2 2
left_child=-1 -2 3 -3 -4 -6 -7
right_child=1 2 4 -5 5 6 -8
leaf_value=-0.032403643305766811 -0.033270880963018321 0.031137248062420179 0.018334047713777141 -0.031252321995911367 0.032413143632385677 0.024596519859391697 0.032524441216513995
leaf_weight=176.94699199870229 52.470386318862438 4.5743422582745543 6.1079233288764945 1.3296500518918035 158.76478434726596 28.769928134977818 39.042564533650875
leaf_count=2675 610 65 66 10 2297 340 520
internal_value=0 0.641586 1.0273 0.54334 1.03891 1.04973 0.974877
internal_weight=0 291.06 238.589 5.90399 232.685 226.577 67.8125
internal_count=6583 3908 3298 75 3223 3157 860
shrinkage=0.03


Tree=69
num_leaves=6
num_cat=0
split_feature=5 3 5 1 1
split_gain=315.807 190.198 1.08968 0.862928 0.00406733
threshold=20.500000000000004 1.0000000180025095e-35 25.500000000000004 10.500000000000002 94.500000000000014
decision_type=2 2 2 2 2
left_child=-1 -2 -3 -4 -5
right_child=1 2 3 4 -6
leaf_value=-0.032325669089995457 -0.033157873988176177 0.016200935716053466 0.018048685477588245 0.031504770591816285 0.022500857132981947
leaf_weight=172.12560493126512 51.09090593084693 5.7566263079643241 6.0212628394365302 217.09581027925014 3.5407476648688307
leaf_count=2675 610 75 66 3099 58
internal_value=0 0.639222 1.02345 1.03504 1.04614
internal_weight=0 283.505 232.414 226.658 220.637
internal_count=6583 3908 3298 3223 3157
shrinkage=0.03


Tree=70
num_leaves=8
num_cat=0
split_feature=5 3 5 2 1 2 2
split_gain=305.568 183.849 1.12362 4.69214 0.878819 0.252139 0.931868
threshold=20.500000000000004 1.0000000180025095e-35 25.500000000000004 3.5000000000000004 10.500000000000002 23.500000000000004 24.500000000000004
decision_type=2 2 2 2 2 2 2
left_child=-1 -2 3 -3 -4 -6 -7
right_child=1 2 4 -5 5 6 -8
leaf_value=-0.032250256719953768 -0.033048665142084127 0.030971700355069749 0.017764948056892847 -0.031127862368955501 0.032259771306521953 0.024030127108612749 0.032349663978652375
leaf_weight=167.42345080897212 49.742631908506155 4.3937426432967177 5.9367962703108779 1.3161761239171026 150.36274094507098 27.482860706746578 36.9969172924757
leaf_count=2675 610 65 66 10 2297 340 520
internal_value=0 0.636661 1.01919 0.528386 1.03119 1.04257 0.963094
internal_weight=0 276.232 226.489 5.70992 220.779 214.843 64.4798
internal_count=6583 3908 3298 75 3223 3157 860
shrinkage=0.03


Tree=71
num_leaves=9
num_cat=0
split_feature=5 2 2 1 1 5 2 2
split_gain=295.722 13.347 10.2535 9.30978 8.12223 7.37875 4.30741 0.121677
threshold=20.500000000000004 1.5000000000000002 3.5000000000000004 5.5000000000000009 93.500000000000014 25.500000000000004 1.0000000180025095e-35 21.500000000000004
decision_type=2 2 2 2 2 2 2 2
left_child=-1 6 -3 7 5 -5 -2 -4
right_child=1 2 3 4 -6 -7 -8 -9
leaf_value=-0.032177308569582175 -0.026388215136190409 -0.030366401991825227 -0.027808670165335777 -0.031309463106352464 -0.035867254301898299 0.018314616577922327 0.031896281730998406 -0.057359630383956847
leaf_weight=162.83834100142121 1.0343710035085667 4.215373706072568 1.4269932918250554 2.6039089299738398 2.4629091173410407 192.22008460760117 64.197140742093325 0.87704172730445851
leaf_count=2675 19 79 26 35 44 2593 1101 11
internal_value=0 0.634377 0.506955 0.540031 0.563983 0.587342 1.02957 -1.40744
internal_weight=0 269.038 203.806 199.591 197.287 194.824 65.2315 2.30404
internal_count=6583 3908 2788 2709 2672 2628 1120 37
shrinkage=0.03


Tree=72
num_leaves=6
num_cat=0
split_feature=5 3 1 5 1
split_gain=284.896 177.779 1.09889 0.853723 0.0259162
threshold=20.500000000000004 1.0000000180025095e-35 10.500000000000002 25.500000000000004 94.500000000000014
decision_type=2 2 2 2 2
left_child=-1 -2 -3 -4 -5
right_child=1 2 3 4 -6
leaf_value=-0.032106731252324404 -0.03299328088037852 0.016079925731543532 0.016974471641815335 0.031231001104441436 0.021648516511630338
leaf_weight=158.36808760464191 48.673845119774342 5.9223434850573531 5.2855321988463393 201.94719532132149 3.2939056642353526
leaf_count=2675 610 67 74 3099 58
internal_value=0 0.624463 1.01299 1.02567 1.03675
internal_weight=0 265.123 216.449 210.527 205.241
internal_count=6583 3908 3298 3231 3157
shrinkage=0.03


Tree=73
num_leaves=7
num_cat=0
split_feature=5 3 5 2 2 2
split_gain=275.706 171.861 1.09487 4.42545 0.721693 2.3024
threshold=20.500000000000004 1.0000000180025095e-35 25.500000000000004 3.5000000000000004 23.500000000000004 24.500000000000004
decision_type=2 2 2 2 2 2
left_child=-1 -2 3 -3 -4 -6
right_child=1 2 4 -5 5 -7
leaf_value=-0.032038434443827625 -0.03288955653656022 0.030698731080591748 0.032067417347372611 -0.030754936381079775 0.020192592002014342 0.032252735448562705
leaf_weight=154.01048272103071 47.382341481745243 4.1023530066013327 139.45647093653679 1.2757544368505476 26.370697230100632 39.713924832642078
leaf_count=2675 610 65 2297 10 343 583
internal_value=0 0.622011 1.00884 0.509274 1.02117 0.917444
internal_weight=0 258.302 210.919 5.37811 205.541 66.0846
internal_count=6583 3908 3298 75 3223 926
shrinkage=0.03


Tree=74
num_leaves=6
num_cat=0
split_feature=5 3 1 5 1
split_gain=266.863 166.206 1.15745 0.85699 0.0409921
threshold=20.500000000000004 1.0000000180025095e-35 10.500000000000002 25.500000000000004 94.500000000000014
decision_type=2 2 2 2 2
left_child=-1 -2 -3 -4 -5
right_child=1 2 3 4 -6
leaf_value=-0.031972333214130712 -0.032789233030275311 0.015301079775635095 0.016526610621337371 0.031036354532216148 0.021060560214519592
leaf_weight=149.76332440972328 46.120846431702375 5.7068316116929045 5.106491230428218 191.47106752172112 3.145508248358964
leaf_count=2675 610 67 74 3099 58
internal_value=0 0.619823 1.00519 1.01858 1.03005
internal_weight=0 251.551 205.43 199.723 194.617
internal_count=6583 3908 3298 3231 3157
shrinkage=0.03


Tree=75
num_leaves=8
num_cat=0
split_feature=5 3 2 2 5 5 5
split_gain=264.16 153.313 0.88212 2.36847 0.787061 1.25381 0.120128
threshold=20.500000000000004 1.0000000180025095e-35 23.500000000000004 24.500000000000004 55.500000000000007 27.500000000000004 25.500000000000004
decision_type=2 2 2 2 2 2 2
left_child=-1 -2 6 4 5 -4 -3
right_child=1 2 3 -5 -6 -7 -8
leaf_value=-0.031895416210536945 -0.032665023791260059 0.022956648901939609 0.029507669636143721 0.031452583958841041 0.031215019389536115 0.011583310287025127 0.031935149781770929
leaf_weight=144.22483326867223 42.209493648260832 5.0261811017990103 5.0603123456239762 39.89340565353632 4.5600300505757323 15.758921690285204 132.50234059989452
leaf_count=2661 578 78 69 614 63 213 2307
internal_value=0 0.64211 1.00323 0.891467 0.637683 0.540121 1.05486
internal_weight=0 245.011 202.801 65.2727 25.3793 20.8192 137.529
internal_count=6583 3922 3344 959 345 282 2385
shrinkage=0.03


Tree=76
num_leaves=11
num_cat=0
split_feature=5 2 2 0 1 4 5 1 2 2
split_gain=255.684 11.1946 9.17906 7.1417 13.3472 8.71045 5.83167 5.84996 3.24133 0.0525449
threshold=20.500000000000004 1.5000000000000002 3.5000000000000004 3.5000000000000004 36.500000000000007 5.5000000000000009 25.500000000000004 94.500000000000014 1.0000000180025095e-35 23.500000000000004
decision_type=2 2 2 2 2 2 2 2 2 2
left_child=-1 8 -3 4 9 -6 -5 -8 -2 -4
right_child=1 2 3 6 5 -7 7 -9 -10 -11
leaf_value=-0.031833854836615147 -0.024760537147625876 -0.029946496779397917 -0.031132178845429407 -0.030446322552179536 0.019651722991583936 -0.040003320582469533 0.020391113608434156 -0.038751141353166513 0.031603200762749716 -0.049044883478947046
leaf_weight=140.22911708056927 0.80401903763413329 3.7858403250575057 3.9001230448484447 1.9782360605895508 19.838493339717392 2.3547129333019248 145.77348317205906 1.3976924493908871 57.075225189328194 1.7938286848366258
leaf_count=2661 17 82 54 31 312 32 2223 28 1121 22
internal_value=0 0.639665 0.515517 0.548997 0.0800533 0.434556 0.635895 0.659438 1.02424 -1.26808
internal_weight=0 238.702 180.822 177.037 27.8872 22.1932 149.149 147.171 57.8792 5.69395
internal_count=6583 3922 2784 2702 420 344 2282 2251 1138 76
shrinkage=0.03


Tree=77
num_leaves=8
num_cat=0
split_feature=5 3 2 2 1 1 5
split_gain=246.522 147.525 0.930506 2.43217 1.54905 1.40247 0.140273
threshold=20.500000000000004 1.0000000180025095e-35 23.500000000000004 24.500000000000004 63.500000000000007 46.500000000000007 25.500000000000004
decision_type=2 2 2 2 2 2 2
left_child=-1 -2 6 4 5 -4 -3
right_child=1 2 3 -5 -6 -7 -8
leaf_value=-0.031774237082708566 -0.032597277901310388 0.022471270867630386 0.014470651509809017 0.031304976536432848 0.003323304512841884 0.031745865950357166 0.031825547406357062
leaf_weight=136.33638536557555 41.102838173508644 4.8211535625159732 10.64542549103499 38.167164131999016 5.2092509344220153 8.7330936715006811 126.03434773162007
leaf_count=2661 578 78 148 614 72 125 2307
internal_value=0 0.631038 0.996571 0.880601 0.620485 0.751097 1.05071
internal_weight=0 234.713 193.61 62.7549 24.5878 19.3785 130.856
internal_count=6583 3922 3344 959 345 273 2385
shrinkage=0.03


Tree=78
num_leaves=11
num_cat=0
split_feature=5 2 2 0 1 4 5 1 2 2
split_gain=238.632 10.9471 8.49158 6.64766 12.5715 8.18465 5.53118 5.50472 3.04608 0.0594476
threshold=20.500000000000004 1.5000000000000002 3.5000000000000004 3.5000000000000004 36.500000000000007 5.5000000000000009 25.500000000000004 94.500000000000014 1.0000000180025095e-35 23.500000000000004
decision_type=2 2 2 2 2 2 2 2 2 2
left_child=-1 8 -3 4 9 -6 -5 -8 -2 -4
right_child=1 2 3 6 5 -7 7 -9 -10 -11
leaf_value=-0.031716491692682973 -0.024362919058903421 -0.029766478238496593 -0.030894841151237491 -0.030340072145299889 0.019210604566502507 -0.040162621639715367 0.019964120219132301 -0.038829584512882181 0.031493599307838259 -0.049380171073437652
leaf_weight=132.54446944594383 0.76343031600117583 3.5773292146623126 3.7009668014943626 1.9117225483059872 19.099243354052309 2.2232805564999572 140.39584380015731 1.324767667800187 53.958343707025051 1.7071506790816782
leaf_count=2661 17 82 54 31 312 32 2223 28 1121 22
internal_value=0 0.628654 0.504272 0.536846 0.0743582 0.42404 0.622109 0.645546 1.02055 -1.26884
internal_weight=0 228.662 173.94 170.363 26.7306 21.3225 143.632 141.721 54.7218 5.40812
internal_count=6583 3922 2784 2702 420 344 2282 2251 1138 76
shrinkage=0.03


Tree=79
num_leaves=8
num_cat=0
split_feature=5 3 2 2 5 5 5
split_gain=230.082 142.005 0.978703 2.49388 0.812837 1.31009 0.160772
threshold=20.500000000000004 1.0000000180025095e-35 23.500000000000004 24.500000000000004 55.500000000000007 27.500000000000004 25.500000000000004
decision_type=2 2 2 2 2 2 2
left_child=-1 -2 6 4 5 -4 -3
right_child=1 2 3 -5 -6 -7 -8
leaf_value=-0.031660547068784239 -0.032534305404147 0.02198213630832864 0.029119689658591713 0.031163066060141634 0.0308494921831701 0.010307528562522433 0.03172257940709549
leaf_weight=128.85121565684676 40.032073616981506 4.6263132505118838 4.7187299877405229 36.522334769368172 4.1765844002366057 14.936267115175722 119.8868791423738
leaf_count=2661 578 78 69 614 63 213 2307
internal_value=0 0.620005 0.99003 0.869809 0.603439 0.503344 1.04676
internal_weight=0 224.899 184.867 60.3539 23.8316 19.655 124.513
internal_count=6583 3922 3344 959 345 282 2385
shrinkage=0.03


Tree=80
num_leaves=8
num_cat=0
split_feature=5 2 2 5 1 0 2
split_gain=222.737 10.7049 7.8546 6.3356 6.20521 5.65728 2.86353
threshold=20.500000000000004 1.5000000000000002 3.5000000000000004 25.500000000000004 93.500000000000014 3.5000000000000004 1.0000000180025095e-35
decision_type=2 2 2 2 2 2 2
left_child=-1 6 -3 -4 5 -5 -2
right_child=1 2 3 4 -6 -7 -8
leaf_value=-0.031606341984871111 -0.023958917031075579 -0.029587380640746321 -0.030837145542652024 0.0036888137124854461 -0.036741582261124332 0.019541618101231673 0.031390317431134671
leaf_weight=125.25447116792202 0.72498049214482208 3.3798989616334429 2.4545283690094939 24.45600725337863 1.821960050612687 135.2637396119535 51.003831699490547
leaf_count=2661 17 82 41 397 41 2223 1121
internal_value=0 0.617665 0.493097 0.524777 0.549609 0.571229 1.01707
internal_weight=0 219.105 167.376 163.996 161.542 159.72 51.7288
internal_count=6583 3922 2784 2702 2661 2620 1138
shrinkage=0.03


Tree=81
num_leaves=12
num_cat=0
split_feature=5 2 2 2 2 2 2 1 2 2 2
split_gain=214.657 10.8916 20.9186 5.79453 9.31596 21.739 6.27216 4.11498 1.76872 0.727768 9.26793
threshold=20.500000000000004 4.5000000000000009 8.5000000000000018 9.5000000000000018 22.500000000000004 14.500000000000002 28.500000000000004 15.500000000000002 1.0000000180025095e-35 1.5000000000000002 3.5000000000000004
decision_type=2 2 2 2 2 2 2 2 2 2 2
left_child=-1 7 -3 -4 5 -5 -6 -2 -9 -10 -11
right_child=1 2 3 4 6 -7 -8 8 9 10 -12
leaf_value=-0.031553805371838398 -0.026671256220371625 -0.032030014988702428 0.031354801764636592 0.01572964172983279 0.024371166035182964 -0.03226797126222123 0.0016447511601154687 -0.021154913099555216 0.03134028157384184 -0.028977575733948862 0.030771591651126098
leaf_weight=121.75213178992271 1.1013289541006077 8.4528989903628808 19.81495750322938 30.33639557659626 58.943398676812649 11.668284047394989 13.783992525190113 0.50082957744598289 49.574429977685213 2.5274629555642631 19.185453247278929
leaf_count=2661 25 117 398 498 950 159 238 12 1121 63 341
internal_value=0 0.608155 0.445909 0.542464 0.45394 0.0760129 0.67044 0.924044 0.954448 0.96848 0.785936
internal_weight=0 215.889 143 134.547 114.732 42.0047 72.7274 72.8895 71.7882 71.2873 21.7129
internal_count=6583 3922 2360 2243 1845 657 1188 1562 1537 1525 404
shrinkage=0.03


Tree=82
num_leaves=12
num_cat=0
split_feature=5 2 2 2 2 2 2 1 2 2 2
split_gain=207.376 10.7857 20.1175 5.74145 8.94642 20.8752 6.13633 3.99707 1.72551 0.711838 8.9747
threshold=20.500000000000004 4.5000000000000009 8.5000000000000018 9.5000000000000018 22.500000000000004 14.500000000000002 28.500000000000004 15.500000000000002 1.0000000180025095e-35 1.5000000000000002 3.5000000000000004
decision_type=2 2 2 2 2 2 2 2 2 2 2
left_child=-1 7 -3 -4 5 -5 -6 -2 -9 -10 -11
right_child=1 2 3 4 6 -7 -8 8 9 10 -12
leaf_value=-0.031502881742357186 -0.026516697790268981 -0.031924918560351359 0.031294909138112184 0.015369795942364097 0.024120439571700909 -0.032165956509062545 0.0015960167946205367 -0.020965490556326741 0.031291653996056878 -0.028881180973015088 0.030664768372025485
leaf_weight=118.34208218380809 1.0754898935556401 8.2299995794892293 19.265772305428982 30.120909675955772 57.788023490458727 11.35911715775728 13.781833138316868 0.49124296009540458 48.183071497827768 2.4611574076116112 18.682664100080729
leaf_count=2661 25 117 398 498 950 159 238 12 1121 63 341
internal_value=0 0.602526 0.44022 0.535281 0.446999 0.0744715 0.661106 0.921814 0.952284 0.966414 0.782968
internal_weight=0 211.439 140.546 132.316 113.05 41.48 71.5699 70.8936 69.8181 69.3269 21.1438
internal_count=6583 3922 2360 2243 1845 657 1188 1562 1537 1525 404
shrinkage=0.03


Tree=83
num_leaves=11
num_cat=0
split_feature=5 2 2 2 2 0 1 2 2 2
split_gain=200.339 10.6815 19.3461 5.68878 8.98428 6.60532 3.88291 1.68363 0.696538 8.69091
threshold=20.500000000000004 4.5000000000000009 8.5000000000000018 9.5000000000000018 11.500000000000002 3.5000000000000004 15.500000000000002 1.0000000180025095e-35 1.5000000000000002 3.5000000000000004
decision_type=2 2 2 2 2 2 2 2 2 2
left_child=-1 6 -3 -4 -5 -6 -2 -8 -9 -10
right_child=1 2 3 4 5 -7 7 8 9 -11
leaf_value=-0.031453513135601005 -0.026361626727892322 -0.031822232671707973 0.031236441684537479 -0.031401653609141142 -0.0034740486993069752 0.017818281849338161 -0.020775988623953655 0.031244378907529582 -0.028784558447418996 0.030557774851688188
leaf_weight=115.02224187552929 1.0503311045467842 8.0124677903950197 18.731034956872463 3.7900578305125228 14.971426036208866 92.656121704727411 0.48190578818321128 46.828876879066229 2.3966467939317253 18.193381201475859
leaf_count=2661 25 117 398 47 236 1562 12 1121 63 341
internal_value=0 0.596858 0.434516 0.528081 0.440063 0.49427 0.919603 0.950143 0.964374 0.77999
internal_weight=0 207.112 138.161 130.149 111.418 107.628 68.9511 67.9008 67.4189 20.59
internal_count=6583 3922 2360 2243 1845 1798 1562 1537 1525 404
shrinkage=0.03


Tree=84
num_leaves=11
num_cat=0
split_feature=5 2 2 2 2 0 1 2 2 2
split_gain=193.331 10.6744 18.553 5.68475 8.59948 6.31857 3.77238 1.64305 0.68186 8.41622
threshold=20.500000000000004 4.5000000000000009 8.5000000000000018 9.5000000000000018 11.500000000000002 3.5000000000000004 15.500000000000002 1.0000000180025095e-35 1.5000000000000002 3.5000000000000004
decision_type=2 2 2 2 2 2 2 2 2 2
left_child=-1 6 -3 -4 -5 -6 -2 -8 -9 -10
right_child=1 2 3 4 5 -7 7 8 9 -11
leaf_value=-0.031405637672869739 -0.026205999431338788 -0.031721829850039351 0.031179331168382132 -0.031269876980077008 -0.0033696701363958269 0.017464477089992558 -0.020586433553709597 0.031198405866729159 -0.028687645708680772 0.030450461117396441
leaf_weight=111.7905623242259 1.0258363336324681 7.8002148084342471 18.210423223674297 3.6937260925769797 14.975163251161574 91.713696446269751 0.47281166911125078 45.510977864265442 2.3338869921863106 17.717320024967194
leaf_count=2661 25 117 398 47 236 1562 12 1121 63 341
internal_value=0 0.589486 0.426968 0.518536 0.430852 0.483721 0.917408 0.948021 0.962357 0.776997
internal_weight=0 203.454 136.393 128.593 110.383 106.689 67.0608 66.035 65.5622 20.0512
internal_count=6583 3922 2360 2243 1845 1798 1562 1537 1525 404
shrinkage=0.03


Tree=85
num_leaves=10
num_cat=0
split_feature=3 1 3 2 0 3 1 1 3
split_gain=187.227 6.64712 4.5222 5.65577 6.41852 16.2464 4.08706 1.26779 0.356529
threshold=1.0000000180025095e-35 5.5000000000000009 1.5000000000000002 3.5000000000000004 4.5000000000000009 4.5000000000000009 94.500000000000014 18.500000000000004 8.5000000000000018
decision_type=2 2 2 2 2 2 2 2 2
left_child=-1 -2 -3 7 5 -5 -6 -4 -9
right_child=1 2 3 4 6 -7 -8 8 -10
leaf_value=-0.03160844597026894 -0.035484593988483588 0.029924881420722055 -0.019633095306833947 0.010684994836087879 0.016846167193081376 -0.050156693050300592 -0.041164107370106173 0.030828296760571899 0.023265953237511253
leaf_weight=107.79106268286705 1.9909712374210349 25.396049436181784 0.42667935416102309 21.251208230853084 97.249087862670422 4.745412614196538 0.98390892148017772 12.553536850959061 36.161787930876017
leaf_count=2507 51 555 11 395 1749 99 23 316 877
internal_value=0 0.579616 0.598359 0.538774 0.422921 -0.0151901 0.539778 0.828163 0.844511
internal_weight=0 200.759 198.768 173.372 124.23 25.9966 98.233 49.142 48.7153
internal_count=6583 4076 4025 3470 2266 494 1772 1204 1193
shrinkage=0.03


Tree=86
num_leaves=8
num_cat=0
split_feature=5 3 2 2 1 1 5
split_gain=183.376 125.448 1.1422 2.85696 1.70235 1.63582 0.280087
threshold=20.500000000000004 1.0000000180025095e-35 23.500000000000004 24.500000000000004 63.500000000000007 46.500000000000007 25.500000000000004
decision_type=2 2 2 2 2 2 2
left_child=-1 -2 6 4 5 -4 -3
right_child=1 2 3 -5 -6 -7 -8
leaf_value=-0.031347968460279922 -0.032324610502256934 0.019726484435933049 0.01137358174389241 0.030741957040709512 -0 0.031197067744912547 0.031426643675824734
leaf_weight=106.80274149030447 36.801375471055508 3.9586018063127986 9.2548645175993496 32.484515141695738 4.6039649024605742 7.3989402949810019 101.48005216941237
leaf_count=2661 578 78 148 614 72 125 2307
internal_value=0 0.583112 0.968092 0.834275 0.535115 0.683115 1.0345
internal_weight=0 195.982 159.181 53.7423 21.2578 16.6538 105.439
internal_count=6583 3922 3344 959 345 273 2385
shrinkage=0.03


Tree=87
num_leaves=8
num_cat=0
split_feature=5 3 2 2 1 1 5
split_gain=177.556 121.292 1.17767 2.86575 1.65525 1.63082 0.302156
threshold=20.500000000000004 1.0000000180025095e-35 23.500000000000004 24.500000000000004 63.500000000000007 46.500000000000007 25.500000000000004
decision_type=2 2 2 2 2 2 2
left_child=-1 -2 6 4 5 -4 -3
right_child=1 2 3 -5 -6 -7 -8
leaf_value=-0.031303274907991813 -0.032241663800197523 0.019393601585771206 0.011141746070275351 0.030640298815339848 -0 0.031113163011367725 0.031379033650036636
leaf_weight=103.79213670641184 35.804476220160723 3.9082404486834994 9.167434357106691 31.62779987603426 4.6039649024605742 7.1996060870587817 98.628178715705872
leaf_count=2661 578 78 148 614 72 125 2307
internal_value=0 0.580883 0.964079 0.827369 0.526619 0.674821 1.03236
internal_weight=0 190.94 155.135 52.5988 20.971 16.367 102.536
internal_count=6583 3922 3344 959 345 273 2385
shrinkage=0.03


Tree=88
num_leaves=10
num_cat=0
split_feature=3 1 3 2 0 3 1 1 3
split_gain=169.057 6.10887 4.29366 5.32396 5.92434 15.4717 3.80318 1.14218 0.354912
threshold=1.0000000180025095e-35 5.5000000000000009 1.5000000000000002 3.5000000000000004 4.5000000000000009 4.5000000000000009 94.500000000000014 18.500000000000004 8.5000000000000018
decision_type=2 2 2 2 2 2 2 2 2
left_child=-1 -2 -3 7 5 -5 -6 -4 -9
right_child=1 2 3 4 6 -7 -8 8 -10
leaf_value=-0.031454645149434038 -0.035679885802369901 0.029701903384247448 -0.01882136459067954 0.010291317565961395 0.016392126000757238 -0.051561903560523717 -0.041420053864068919 0.03068264437528135 0.022858377940138772
leaf_weight=98.963633498176932 1.8363028094172467 23.381116311997175 0.39550081267952814 20.075052291154865 91.805449686944485 4.3388788960874072 0.91433721035718818 11.586105179041622 33.596279762685299
leaf_count=2507 51 555 11 395 1749 99 23 316 877
internal_value=0 0.565708 0.584193 0.524684 0.409513 -0.0248147 0.524856 0.816936 0.833144
internal_weight=0 187.929 186.093 162.712 117.134 24.4139 92.7198 45.5779 45.1824
internal_count=6583 4076 4025 3470 2266 494 1772 1204 1193
shrinkage=0.03


Tree=89
num_leaves=8
num_cat=0
split_feature=5 3 2 2 1 1 5
split_gain=169.065 113.774 1.23586 2.90291 1.6209 1.64329 0.34291
threshold=20.500000000000004 1.0000000180025095e-35 23.500000000000004 24.500000000000004 63.500000000000007 46.500000000000007 25.500000000000004
decision_type=2 2 2 2 2 2 2
left_child=-1 -2 6 4 5 -4 -3
right_child=1 2 3 -5 -6 -7 -8
leaf_value=-0.03125153170858732 -0.032084853090960444 0.018722028593449465 0.010649153824449016 0.030482293753100718 -0 0.030987723895218953 0.031304111024714226
leaf_weight=99.177989343181252 33.904534423723817 3.7720002159476271 8.9783584363758582 30.315251722931862 4.5505724623799315 6.9048559777438632 93.98939972743392
leaf_count=2661 578 78 148 614 72 125 2307
internal_value=0 0.579772 0.957434 0.815921 0.510601 0.660571 1.02896
internal_weight=0 182.415 148.51 50.749 20.4338 15.8832 97.7614
internal_count=6583 3922 3344 959 345 273 2385
shrinkage=0.03


Tree=90
num_leaves=6
num_cat=0
split_feature=5 3 5 2 2
split_gain=163.705 110.002 1.27882 1.10474 3.12539
threshold=20.500000000000004 1.0000000180025095e-35 25.500000000000004 23.500000000000004 24.500000000000004
decision_type=2 2 2 2 2
left_child=-1 -2 -3 -4 -5
right_child=1 2 3 4 -6
leaf_value=-0.031209685587091276 -0.032009047697511638 0.011002757299715022 0.031260157414071239 0.015454645538704395 0.031392612764752983
leaf_weight=96.374071162194014 32.979482170194387 4.315896049141883 91.338047564029694 20.016773883253336 29.079524952918291
leaf_count=2661 578 82 2307 344 611
internal_value=0 0.577525 0.953369 0.970412 0.833341
internal_weight=0 177.73 144.75 140.434 49.0963
internal_count=6583 3922 3344 3262 955
shrinkage=0.03


Tree=91
num_leaves=11
num_cat=0
split_feature=5 2 2 2 2 0 1 2 2 2
split_gain=158.52 9.07787 14.6363 4.71786 6.7552 5.2633 3.11733 1.29501 0.526213 6.64917
threshold=20.500000000000004 4.5000000000000009 8.5000000000000018 9.5000000000000018 11.500000000000002 3.5000000000000004 15.500000000000002 1.0000000180025095e-35 1.5000000000000002 3.5000000000000004
decision_type=2 2 2 2 2 2 2 2 2 2
left_child=-1 6 -3 -4 -5 -6 -2 -8 -9 -10
right_child=1 2 3 4 5 -7 7 8 9 -11
leaf_value=-0.03116905271189031 -0.025281536953628263 -0.031063763788560725 0.0308138871799097 -0.030373955840244219 -0.0034467066163146732 0.0168842235843597 -0.0185430556264672 0.030929106361153123 -0.027917854667409238 0.029863547993172399
leaf_weight=93.645998010411859 0.8671691045165052 6.4354902859777203 14.948340922594069 3.0632369369268408 13.069017732515929 79.731123935431242 0.38845181465148826 37.749303493648767 1.9010874554514892 14.995753046125174
leaf_count=2661 25 117 398 47 236 1562 12 1121 63 341
internal_value=0 0.575315 0.415036 0.501034 0.41697 0.46627 0.908354 0.939238 0.953243 0.768666
internal_weight=0 173.149 117.247 110.812 95.8634 92.8001 55.9018 55.0346 54.6461 16.8968
internal_count=6583 3922 2360 2243 1845 1798 1562 1537 1525 404
shrinkage=0.03


Tree=92
num_leaves=11
num_cat=0
split_feature=5 2 2 2 2 0 1 2 2 2
split_gain=152.983 9.06716 14.0376 4.71197 6.46741 5.03079 3.03103 1.26631 0.516832 6.44025
threshold=20.500000000000004 4.5000000000000009 8.5000000000000018 9.5000000000000018 11.500000000000002 3.5000000000000004 15.500000000000002 1.0000000180025095e-35 1.5000000000000002 3.5000000000000004
decision_type=2 2 2 2 2 2 2 2 2 2
left_child=-1 6 -3 -4 -5 -6 -2 -8 -9 -10
right_child=1 2 3 4 5 -7 7 8 9 -11
leaf_value=-0.03112959008532629 -0.025116257757021289 -0.030977720572291919 0.030765443497274485 -0.030255955674024601 -0.003343058684101939 0.016540733268345407 -0.018354990204698669 0.030891295926647872 -0.027815924869130572 0.029753740740048773
leaf_weight=90.991932522505522 0.84764315187930961 6.2626522108912459 14.52920390665531 2.9845079239457837 13.073020914569495 78.959175512194633 0.3817848265171041 36.677926875650883 1.8519219104200608 14.605825755745173
leaf_count=2661 25 117 398 47 236 1562 12 1121 63 341
internal_value=0 0.567917 0.407594 0.491706 0.408037 0.456105 0.906227 0.937216 0.951352 0.76552
internal_weight=0 170.174 115.809 109.546 95.0167 92.0322 54.3651 53.5175 53.1357 16.4577
internal_count=6583 3922 2360 2243 1845 1798 1562 1537 1525 404
shrinkage=0.03


Tree=93
num_leaves=7
num_cat=0
split_feature=5 3 5 2 2 1
split_gain=147.634 104.188 1.41368 1.1683 3.26636 1.72294
threshold=20.500000000000004 1.0000000180025095e-35 25.500000000000004 23.500000000000004 24.500000000000004 63.500000000000007
decision_type=2 2 2 2 2 2
left_child=-1 -2 -3 -4 5 -5
right_child=1 2 3 4 -6 -7
leaf_value=-0.031091254163184163 -0.031937478768218522 0.0096140904464184513 0.031154415397831425 0.019516794894786166 0.031291122555942213 -0.0012590443280865095
leaf_weight=88.410073917359114 31.802826572209597 4.1440387591719618 84.587093461304903 14.82540160790086 27.56234085559845 4.3674162179231635
leaf_count=2661 578 82 2307 272 611 72
internal_value=0 0.560479 0.943172 0.9618 0.819018 0.488388
internal_weight=0 167.289 135.486 131.342 46.7552 19.1928
internal_count=6583 3922 3344 3262 955 344
shrinkage=0.03


Tree=94
num_leaves=7
num_cat=0
split_feature=5 3 5 3 1 3
split_gain=142.966 100.737 1.43134 0.660983 1.18894 0.349812
threshold=20.500000000000004 1.0000000180025095e-35 25.500000000000004 4.5000000000000009 13.500000000000002 8.5000000000000018
decision_type=2 2 2 2 2 2
left_child=-1 -2 -3 -4 -5 -6
right_child=1 2 3 4 5 -7
leaf_value=-0.031054003904843058 -0.031865899685311484 0.0093716244801226346 0.031293547843408223 0.0088396069110316805 0.024604524433684639 0.030740283790209655
leaf_weight=85.898643897846341 30.931411884725094 4.1265736855566493 63.603228636085987 3.9913078844547263 35.548936527222395 24.78455307148397
leaf_count=2661 578 82 1531 71 855 805
internal_value=0 0.558297 0.939142 0.958319 0.871429 0.90738
internal_weight=0 162.986 132.055 127.928 64.3248 60.3335
internal_count=6583 3922 3344 3262 1731 1660
shrinkage=0.03


Tree=95
num_leaves=10
num_cat=0
split_feature=3 1 3 2 0 3 1 1 3
split_gain=137.251 5.19297 3.61534 4.43187 4.91741 14.7196 3.43362 0.891894 0.295171
threshold=1.0000000180025095e-35 5.5000000000000009 1.5000000000000002 3.5000000000000004 4.5000000000000009 4.5000000000000009 94.500000000000014 18.500000000000004 8.5000000000000018
decision_type=2 2 2 2 2 2 2 2 2
left_child=-1 -2 -3 7 5 -5 -6 -4 -9
right_child=1 2 3 4 6 -7 -8 8 -10
leaf_value=-0.031202773657791845 -0.036453794847935789 0.02932977125704684 -0.016657857836511879 0.010395700310208544 0.01593701123351832 -0.055572943408790161 -0.04327486458616045 0.030383137610036623 0.022312795370236668
leaf_weight=82.336842378601432 1.527369663119315 19.331028115004301 0.32648453675210376 17.506851822137836 79.355757568031549 3.5786192454397669 0.77136721462011237 9.6990033537149412 27.833260664716363
leaf_count=2507 51 555 11 395 1749 99 23 316 877
internal_value=0 0.54816 0.566549 0.508024 0.396194 -0.0289446 0.509212 0.802528 0.818441
internal_weight=0 159.93 158.402 139.071 101.213 21.0855 80.1271 37.8587 37.5323
internal_count=6583 4076 4025 3470 2266 494 1772 1204 1193
shrinkage=0.03


Tree=96
num_leaves=7
num_cat=0
split_feature=5 3 5 3 1 3
split_gain=136.204 94.4825 1.50145 0.69333 1.19298 0.376842
threshold=20.500000000000004 1.0000000180025095e-35 25.500000000000004 4.5000000000000009 13.500000000000002 8.5000000000000018
decision_type=2 2 2 2 2 2
left_child=-1 -2 -3 -4 -5 -6
right_child=1 2 3 4 5 -7
leaf_value=-0.031012477936428334 -0.031729980287128652 0.0086006606892909346 0.031223356061344819 0.0084289187428303221 0.024279152938519219 0.030677133942499164
leaf_weight=82.080346820876002 29.269824998453259 4.0375414788722983 60.745176993310452 3.9208615645766249 34.191346794366837 23.581358470022678
leaf_count=2661 578 82 1531 71 855 805
internal_value=0 0.55726 0.932325 0.952549 0.862513 0.899699
internal_weight=0 155.746 126.476 122.439 61.6936 57.7727
internal_count=6583 3922 3344 3262 1731 1660
shrinkage=0.03


Tree=97
num_leaves=7
num_cat=0
split_feature=5 3 5 3 1 3
split_gain=131.903 91.3473 1.5157 0.711088 1.19083 0.393342
threshold=20.500000000000004 1.0000000180025095e-35 25.500000000000004 4.5000000000000009 13.500000000000002 8.5000000000000018
decision_type=2 2 2 2 2 2
left_child=-1 -2 -3 -4 -5 -6
right_child=1 2 3 4 5 -7
leaf_value=-0.030977410898152813 -0.031664196124289265 0.008379106840785279 0.031179866839855651 0.0082414237147675571 0.024085274287931731 0.03064152668305601
leaf_weight=79.743428135290742 28.463097888976336 4.0228412747383109 59.031004630029202 3.8924723714590064 33.444711079820991 22.9107312168926
leaf_count=2661 578 82 1531 71 855 805
internal_value=0 0.555041 0.928178 0.948972 0.857208 0.895112
internal_weight=0 151.765 123.302 119.279 60.2479 56.3554
internal_count=6583 3922 3344 3262 1731 1660
shrinkage=0.03


Tree=98
num_leaves=10
num_cat=0
split_feature=3 1 3 2 0 3 1 1 3
split_gain=124.011 4.79839 3.42841 4.22835 4.57522 14.2245 3.25933 0.805706 0.300489
threshold=1.0000000180025095e-35 5.5000000000000009 1.5000000000000002 3.5000000000000004 4.5000000000000009 4.5000000000000009 94.500000000000014 18.500000000000004 8.5000000000000018
decision_type=2 2 2 2 2 2 2 2 2
left_child=-1 -2 -3 7 5 -5 -6 -4 -9
right_child=1 2 3 4 6 -7 -8 8 -10
leaf_value=-0.031083440833218175 -0.036707452591286396 0.029125941362047495 -0.015778431108923147 0.010001192524714488 0.01548903788664921 -0.057659240643559026 -0.044128587041355825 0.03027935809187662 0.02192200395348352
leaf_weight=75.519116923213005 1.4111064374446858 17.772422920912504 0.30319547466933627 16.516608990728859 74.897264715284109 3.2599103171378365 0.71523222886025806 9.0861116722226125 25.880952583625913
leaf_count=2507 51 555 11 395 1749 99 23 316 877
internal_value=0 0.534546 0.552746 0.494409 0.382284 -0.0411607 0.494265 0.792891 0.808645
internal_weight=0 149.843 148.432 130.659 95.389 19.7765 75.6125 35.2703 34.9671
internal_count=6583 4076 4025 3470 2266 494 1772 1204 1193
shrinkage=0.03


Tree=99
num_leaves=6
num_cat=0
split_feature=5 3 5 2 2
split_gain=125.716 85.6694 1.58355 1.38102 3.51955
threshold=20.500000000000004 1.0000000180025095e-35 25.500000000000004 23.500000000000004 24.500000000000004
decision_type=2 2 2 2 2
left_child=-1 -2 -3 -4 -5
right_child=1 2 3 4 -6
leaf_value=-0.030939864640134158 -0.03153891455149134 0.0076233449078407078 0.030965014078941717 0.012828193285620074 0.031037396750339546
leaf_weight=76.214844264090061 26.924011908471584 3.939401250332593 72.876904977485538 17.498430915176868 23.832855258136988
leaf_count=2661 578 82 2307 344 611
internal_value=0 0.554008 0.921257 0.943152 0.781671
internal_weight=0 145.072 118.148 114.208 41.3313
internal_count=6583 3922 3344 3262 955
shrinkage=0.03


Tree=100
num_leaves=8
num_cat=0
split_feature=5 3 5 3 0 3 3
split_gain=118.396 87.1558 0.967427 0.752219 1.54608 3.78492 0.150237
threshold=20.500000000000004 1.0000000180025095e-35 25.500000000000004 4.5000000000000009 3.5000000000000004 8.5000000000000018 8.5000000000000018
decision_type=2 2 2 2 2 2 2
left_child=-1 -2 -3 -4 5 -5 -6
right_child=1 2 3 4 6 -7 -8
leaf_value=-0.030904958073709458 -0.031500918890952634 0.011086939580411986 0.031068809203163399 -0.020246715313711094 0.024875589063384274 0.029094228229418595 0.030494060503995179
leaf_weight=73.392981106415391 27.810810739174485 3.8596345558762541 53.581041248515248 2.1829612627625457 33.333504628390074 3.38707628659904 17.867092400789261
leaf_count=2641 610 85 1500 71 868 128 680
internal_value=0 0.533177 0.92015 0.938149 0.842731 0.30706 0.898344
internal_weight=0 142.022 114.211 110.352 56.7706 5.57004 51.2006
internal_count=6583 3942 3332 3247 1747 199 1548
shrinkage=0.03


Tree=101
num_leaves=10
num_cat=0
split_feature=3 1 3 2 0 3 3 1 3
split_gain=113.986 4.55256 3.25794 3.79219 4.2667 9.74259 1.25208 0.870351 0.370819
threshold=1.0000000180025095e-35 5.5000000000000009 1.5000000000000002 3.5000000000000004 3.5000000000000004 3.5000000000000004 2.5000000000000004 18.500000000000004 8.5000000000000018
decision_type=2 2 2 2 2 2 2 2 2
left_child=-1 -2 -3 7 5 -5 -6 -4 -9
right_child=1 2 3 4 6 -7 -8 8 -10
leaf_value=-0.030993128848939174 -0.036629652586465479 0.029288867268360254 -0.016696545459732707 0.011977753656203729 0.0040885149478207018 -0.050668960156494906 0.015263639990241556 0.030212767194965472 0.021217495222377671
leaf_weight=70.651332311332226 1.3507122993469227 15.92137307487428 0.33094967156648536 7.3356489557772857 11.432347744703291 3.0753830969333649 66.384392948821187 8.9073006808757764 24.305611001327634
leaf_count=2531 53 542 13 186 296 99 1651 329 883
internal_value=0 0.525832 0.544567 0.486544 0.374783 -0.218282 0.455591 0.775541 0.793448
internal_weight=0 139.044 137.693 121.772 88.2278 10.411 77.8167 33.5439 33.2129
internal_count=6583 4052 3999 3457 2232 285 1947 1225 1212
shrinkage=0.03


Tree=102
num_leaves=11
num_cat=0
split_feature=5 2 2 2 2 0 1 2 2 2
split_gain=112.926 8.75768 10.1834 3.91781 5.20168 4.99246 1.45016 0.727845 0.411657 4.61421
threshold=20.500000000000004 4.5000000000000009 8.5000000000000018 9.5000000000000018 11.500000000000002 3.5000000000000004 15.500000000000002 1.0000000180025095e-35 1.5000000000000002 3.5000000000000004
decision_type=2 2 2 2 2 2 2 2 2 2
left_child=-1 6 -3 -4 -5 -6 -2 -8 -9 -10
right_child=1 2 3 4 5 -7 7 8 9 -11
leaf_value=-0.030869917253403083 -0.019617870305184186 -0.030218900871983687 0.030304047091303896 -0.029413664596946464 -0.0072984337929986173 0.015272052732671761 -0.012850799209573542 0.030603238456048787 -0.026642874991714516 0.028550192324000297
leaf_weight=70.160830955952406 0.44758969359099771 5.033118473365902 10.61845128983259 2.6717759389430276 9.9624875858426076 64.456857414916158 0.23933921009302039 28.899430794641376 1.4006352424621553 12.041121128946543
leaf_count=2641 20 126 387 57 224 1571 10 1137 64 346
internal_value=0 0.532532 0.357107 0.437598 0.356236 0.406818 0.906619 0.92686 0.937868 0.747441
internal_weight=0 135.771 92.7427 87.7096 77.0911 74.4193 43.0281 42.5805 42.3412 13.4418
internal_count=6583 3942 2365 2239 1852 1795 1577 1557 1547 410
shrinkage=0.03


Tree=103
num_leaves=10
num_cat=0
split_feature=3 1 3 2 0 3 3 1 3
split_gain=107.698 4.29552 3.15739 3.5534 3.84481 9.60888 1.1293 0.812923 0.378973
threshold=1.0000000180025095e-35 5.5000000000000009 1.5000000000000002 3.5000000000000004 3.5000000000000004 3.5000000000000004 2.5000000000000004 18.500000000000004 8.5000000000000018
decision_type=2 2 2 2 2 2 2 2 2
left_child=-1 -2 -3 7 5 -5 -6 -4 -9
right_child=1 2 3 4 6 -7 -8 8 -10
leaf_value=-0.030950186673600198 -0.036603560016794177 0.029157966365549265 -0.016173132634808865 0.012147223318675307 0.0041837285262728069 -0.051423873274850908 0.014947837284092415 0.030121563686397644 0.020850309769802886
leaf_weight=67.291924921795726 1.2829838916659344 15.132683869451283 0.31634494476020242 7.2753097806125862 11.198261294513939 2.8984305988997221 64.61908295750618 8.4102418925613183 23.283171722665429
leaf_count=2531 53 542 13 186 296 99 1651 329 883
internal_value=0 0.517102 0.535497 0.477906 0.369019 -0.199867 0.446836 0.765245 0.783064
internal_weight=0 134.417 133.134 118.001 85.9911 10.1737 75.8173 32.0098 31.6934
internal_count=6583 4052 3999 3457 2232 285 1947 1225 1212
shrinkage=0.03


Tree=104
num_leaves=10
num_cat=0
split_feature=3 1 3 2 0 3 3 1 3
split_gain=103.82 4.13037 3.15645 3.47922 3.64427 9.37279 1.08334 0.787476 0.405674
threshold=1.0000000180025095e-35 5.5000000000000009 1.5000000000000002 3.5000000000000004 3.5000000000000004 3.5000000000000004 2.5000000000000004 18.500000000000004 8.5000000000000018
decision_type=2 2 2 2 2 2 2 2 2
left_child=-1 -2 -3 7 5 -5 -6 -4 -9
right_child=1 2 3 4 6 -7 -8 8 -10
leaf_value=-0.030916412757067264 -0.036494047818567715 0.029050949199563549 -0.015992646811010567 0.01183877596581462 0.0040617357322124186 -0.051799595296894596 0.014620153714101374 0.030076666372668814 0.020510247022651463
leaf_weight=65.373519463464618 1.2490424662828434 14.73909650556743 0.31151955202222126 7.244003910571335 11.191664528101681 2.7919590529054403 64.0956747867167 8.1738291941583174 22.965654376894236
leaf_count=2531 53 542 13 186 296 99 1651 329 883
internal_value=0 0.507985 0.526035 0.468568 0.360774 -0.196851 0.436596 0.755761 0.773521
internal_weight=0 132.762 131.513 116.774 85.3233 10.036 75.2873 31.451 31.1395
internal_count=6583 4052 3999 3457 2232 285 1947 1225 1212
shrinkage=0.03


Tree=105
num_leaves=9
num_cat=0
split_feature=5 3 2 2 5 0 5 5
split_gain=105.856 76.1533 2.07907 3.82437 4.5789 1.64815 0.0665197 0.0204987
threshold=20.500000000000004 1.0000000180025095e-35 23.500000000000004 24.500000000000004 39.500000000000007 8.5000000000000018 34.500000000000007 25.500000000000004
decision_type=2 2 2 2 2 2 2 2
left_child=-1 -2 7 4 -4 -6 -5 -3
right_child=1 2 3 6 5 -7 -8 -9
leaf_value=-0.030837227193039628 -0.031277337177641876 0.020595547453196892 -0.017207220842816937 0.01921342075408812 0.0076615983006362229 0.030502404980627576 0.030833538269386909 0.030822301808821544
leaf_weight=66.066743390634656 24.762089673429728 2.8352962285280219 4.035742990672591 2.6528185456991222 6.4172446243464929 5.913271389901638 18.372438088059425 63.622542269527912
leaf_count=2641 610 81 76 82 142 129 519 2303
internal_value=0 0.528458 0.904664 0.702958 0.328322 0.633794 0.98691 1.01542
internal_weight=0 128.611 103.849 37.3915 16.3663 12.3305 21.0253 66.4578
internal_count=6583 3942 3332 948 347 271 601 2384
shrinkage=0.03


Tree=106
num_leaves=12
num_cat=0
split_feature=5 2 2 2 0 1 2 1 2 2 2
split_gain=102.53 8.00502 8.9263 3.49832 4.63894 8.20902 4.68989 1.27596 0.64381 0.350849 4.04628
threshold=20.500000000000004 4.5000000000000009 8.5000000000000018 9.5000000000000018 3.5000000000000004 69.500000000000014 22.500000000000004 15.500000000000002 1.0000000180025095e-35 1.5000000000000002 3.5000000000000004
decision_type=2 2 2 2 2 2 2 2 2 2 2
left_child=-1 7 -3 -4 5 -5 -6 -2 -9 -10 -11
right_child=1 2 3 4 6 -7 -8 8 9 10 -12
leaf_value=-0.030806654068261514 -0.0185467513033803 -0.02991892953719668 0.030139772046477206 -0.045559586506743126 0.0020506913174662481 0.01109586172993084 0.019553263908485361 -0.011496919381508397 0.030498387736707027 -0.026115898587344113 0.028241833392148967
leaf_weight=64.176944805309176 0.40182125195860757 4.4957990162074557 9.4841542989015561 3.39285667426884 21.376330509781837 6.5353354066610336 40.992153218016028 0.21633505821227927 26.09521622210741 1.2488209009170503 11.111645638942719
leaf_count=2641 20 126 387 79 542 160 1071 10 1137 64 346
internal_value=0 0.526306 0.353638 0.430252 0.352235 -0.274255 0.453843 0.903136 0.923077 0.933994 0.744787
internal_weight=0 125.35 86.2766 81.7808 72.2967 9.92819 62.3685 39.0738 38.672 38.4557 12.3605
internal_count=6583 3942 2365 2239 1852 239 1613 1577 1557 1547 410
shrinkage=0.03


Tree=107
num_leaves=11
num_cat=0
split_feature=5 2 2 2 2 0 1 2 2 2
split_gain=99.0121 7.92433 8.57642 3.46782 4.48127 4.26292 1.24654 0.633797 0.350228 3.91733
threshold=20.500000000000004 4.5000000000000009 8.5000000000000018 9.5000000000000018 11.500000000000002 3.5000000000000004 15.500000000000002 1.0000000180025095e-35 1.5000000000000002 3.5000000000000004
decision_type=2 2 2 2 2 2 2 2 2 2
left_child=-1 6 -3 -4 -5 -6 -2 -8 -9 -10
right_child=1 2 3 4 5 -7 7 8 9 -11
leaf_value=-0.030776854421843358 -0.018364488872039352 -0.029846579016951352 0.030098812636624193 -0.028969331246040765 -0.0068496168435027869 0.014739137485749057 -0.011347161777562211 0.030469742174067716 -0.025995880044444041 0.028097657455043151
leaf_weight=62.339717263355851 0.39473504759371186 4.373584020882844 9.216325765475629 2.3819477651268235 9.2771279215812665 59.900494704023004 0.21397031843662159 25.347528157755733 1.2178786993026705 10.838255193084478
leaf_count=2641 20 126 387 57 224 1571 10 1137 64 346
internal_value=0 0.519741 0.347652 0.42272 0.345255 0.393165 0.90068 0.920787 0.931873 0.740586
internal_weight=0 123.162 85.1495 80.7759 71.5596 69.1776 38.0124 37.6176 37.4037 12.0561
internal_count=6583 3942 2365 2239 1852 1795 1577 1557 1547 410
shrinkage=0.03


Tree=108
num_leaves=11
num_cat=0
split_feature=5 2 2 2 2 0 1 2 2 2
split_gain=95.5574 7.87108 8.22915 3.4479 4.29329 4.0563 1.21793 0.624007 0.349964 3.79224
threshold=20.500000000000004 4.5000000000000009 8.5000000000000018 9.5000000000000018 11.500000000000002 3.5000000000000004 15.500000000000002 1.0000000180025095e-35 1.5000000000000002 3.5000000000000004
decision_type=2 2 2 2 2 2 2 2 2 2
left_child=-1 6 -3 -4 -5 -6 -2 -8 -9 -10
right_child=1 2 3 4 5 -7 7 8 9 -11
leaf_value=-0.030747803050072835 -0.018182300838775426 -0.029774439124941869 0.030058051122268743 -0.028866515355574416 -0.0066403671313391222 0.014417225993671597 -0.011198807460783614 0.030441572224974688 -0.025874473052671352 0.027950301649762997
leaf_weight=60.553691001608968 0.38783643767237558 4.2546928115189067 8.9560225792229158 2.3200109768658868 9.2854058686643821 59.410599697381258 0.21166056394576929 24.620906488969922 1.1878095865249605 10.573075991123915
